{"learner":{"attributes":{"best_iteration":"99","best_ntree_limit":"100","scikit_learn":"{\"use_label_encoder\": true, \"n_estimators\": 100, \"objective\": \"binary:logistic\", \"max_depth\": 4, \"learning_rate\": 0.1, \"verbosity\": null, \"booster\": null, \"tree_method\": null, \"gamma\": null, \"min_child_weight\": null, \"max_delta_step\": null, \"subsample\": null, \"colsample_bytree\": null, \"colsample_bylevel\": null, \"colsample_bynode\": null, \"reg_alpha\": null, \"reg_lambda\": null, \"scale_pos_weight\": 6, \"base_score\": null, \"missing\": NaN, \"num_parallel_tree\": null, \"random_state\": 3, \"n_jobs\": null, \"monotone_constraints\": null, \"interaction_constraints\": null, \"importance_type\": null, \"gpu_id\": null, \"validate_parameters\": null, \"predictor\": null, \"enable_categorical\": false, \"kwargs\": {\"eval_metric\": \"logloss\"}, \"classes_\": [0, 1], \"n_classes_\": 2, \"_le\": {\"classes_\": [0, 1]}, \"_estimator_type\": \"classifier\"}"},"feature_names":["estimated_monthly_revenue","incoming_ach_payments","sh_sw_ratio_mean","screen_width_mean","industry_category_name_professional, scientific, and technical services","business_group","outgoing_ach_and_checks","socure_sigma","iovation_device_type_mac","industry_category_name_real estate rental and leasing","socure_emailrisk","socure_emailrisk_reason_code_i566","socure_phonerisk","industry_category_name_retail trade","socure_emailrisk_reason_code_i553","iovation_device_type_android","outgoing_wire_transfers","socure_emailrisk_reason_code_r561","check_deposit_amount","socure_phonerisk_reason_code_i630","socure_reason_code_r207","socure_phonerisk_reason_code_i614","iovation_device_timezone_480","industry_category_name_administrative and support and waste management and remediation services","socure_phonerisk_reason_code_r616","email_domain_bucket","incoming_wire_transfer","industry_category_name_health care and social assistance","socure_phonerisk_reason_code_r639","carrier_tmobile"],"feature_types":["int","int","float","float","int","int","int","float","int","int","float","int","float","int","int","int","int","int","int","int","int","int","int","int","int","int","int","int","int","int"],"gradient_booster":{"model":{"gbtree_model_param":{"num_trees":"100","size_leaf_vector":"0"},"tree_info":[0,0,0,0,0,0,0,0,0,0,0,0,0,0,0,0,0,0,0,0,0,0,0,0,0,0,0,0,0,0,0,0,0,0,0,0,0,0,0,0,0,0,0,0,0,0,0,0,0,0,0,0,0,0,0,0,0,0,0,0,0,0,0,0,0,0,0,0,0,0,0,0,0,0,0,0,0,0,0,0,0,0,0,0,0,0,0,0,0,0,0,0,0,0,0,0,0,0,0,0],"trees":[{"base_weights":[-5.300001E-1,-1.1070083E0,1.2457317E-1,-3.8290295E-1,-1.2235125E0,5.3007114E-1,-6.279314E-1,-1.2749265E-1,-9.268293E-1,-1.0468708E0,-1.4855947E0,9.1228783E-1,2.768597E-1,-1.2124199E0,-2.2865315E-1,-5.7509774E-1,5.7723388E-2,-1.1410737E0,-6.540881E-1,-3.8968146E-1,-1.1658285E0,-1.2470589E0,-1.6002904E0,2.552381E-1,1.0207233E0,1.18171416E-1,7.364747E-1,-8.625147E-1,-1.4639525E0,1.9645889E-1,-4.5417097E-1],"categories":[],"categories_nodes":[],"categories_segments":[],"categories_sizes":[],"default_left":[true,true,true,true,true,true,true,true,true,true,true,true,true,true,true,false,false,false,false,false,false,false,false,false,false,false,false,false,false,false,false],"id":0,"left_children":[1,3,5,7,9,11,13,15,17,19,21,23,25,27,29,-1,-1,-1,-1,-1,-1,-1,-1,-1,-1,-1,-1,-1,-1,-1,-1],"loss_changes":[1.1508762E4,1.3657637E3,4.356727E3,3.1190604E2,6.4425586E2,8.976875E2,1.1665322E3,1.26834305E2,4.1179443E1,6.5129395E2,1.5160449E2,2.6312378E2,4.070572E2,1.773147E2,2.849919E2,0E0,0E0,0E0,0E0,0E0,0E0,0E0,0E0,0E0,0E0,0E0,0E0,0E0,0E0,0E0,0E0],"parents":[2147483647,0,0,1,1,2,2,3,3,4,4,5,5,6,6,7,7,8,8,9,9,10,10,11,11,12,12,13,13,14,14],"right_children":[2,4,6,8,10,12,14,16,18,20,22,24,26,28,30,-1,-1,-1,-1,-1,-1,-1,-1,-1,-1,-1,-1,-1,-1,-1,-1],"split_conditions":[5E-1,1.715E-1,1.0657997E0,6.0950005E-1,1.2185004E0,7.475E-1,5E-1,5E-1,1.367E3,5.5050004E-1,3.505E-1,5E-1,5E-1,5E-1,3.275E-1,-5.7509776E-2,5.7723387E-3,-1.1410737E-1,-6.540881E-2,-3.8968146E-2,-1.1658285E-1,-1.2470589E-1,-1.6002904E-1,2.552381E-2,1.02072336E-1,1.1817141E-2,7.364747E-2,-8.625147E-2,-1.4639525E-1,1.964589E-2,-4.5417096E-2],"split_indices":[0,7,2,10,2,10,5,5,3,10,12,5,4,11,12,0,0,0,0,0,0,0,0,0,0,0,0,0,0,0,0],"split_type":[0,0,0,0,0,0,0,0,0,0,0,0,0,0,0,0,0,0,0,0,0,0,0,0,0,0,0,0,0,0,0],"sum_hessian":[3.046975E4,1.6194E4,1.427575E4,2.245E3,1.3949E4,9.277E3,4.99875E3,1.5285E3,7.165E2,8.33575E3,5.61325E3,3.69575E3,5.58125E3,2.028E3,2.97075E3,4.4675E2,1.08175E3,3.995E2,3.17E2,1.27825E3,7.0575E3,1.8265E3,3.78675E3,5.24E2,3.17175E3,4.14975E3,1.4315E3,8.5E2,1.178E3,1.02975E3,1.941E3],"tree_param":{"num_deleted":"0","num_feature":"30","num_nodes":"31","size_leaf_vector":"0"}},{"base_weights":[-4.78319E-1,-1.0000687E0,1.1226248E-1,-3.4505358E-1,-1.1057837E0,-5.471449E-1,4.8999774E-1,-1.1481025E-1,-8.363833E-1,-1.3295457E0,-9.340941E-1,-1.0893744E0,-1.9310002E-1,8.433534E-1,2.6000297E-1,-5.773048E-1,3.7089363E-2,-7.3440427E-1,-1.3173182E0,-1.0668415E0,-1.4248446E0,-1.0621121E0,-4.2122215E-1,-7.673391E-1,-1.3257705E0,1.8481311E-1,-3.9761126E-1,2.5413015E-1,9.3976694E-1,2.9473038E-2,5.4590774E-1],"categories":[],"categories_nodes":[],"categories_segments":[],"categories_sizes":[],"default_left":[true,true,true,true,true,true,true,true,true,true,true,true,true,true,true,false,false,false,false,false,false,false,false,false,false,false,false,false,false,false,false],"id":1,"left_children":[1,3,5,7,9,11,13,15,17,19,21,23,25,27,29,-1,-1,-1,-1,-1,-1,-1,-1,-1,-1,-1,-1,-1,-1,-1,-1],"loss_changes":[9.3655E3,1.1170498E3,3.5515127E3,2.5375565E2,5.325469E2,9.9673035E2,7.365134E2,1.074464E2,3.4142273E1,1.4944434E2,5.159658E2,1.551333E2,2.429845E2,2.0277808E2,3.6199792E2,0E0,0E0,0E0,0E0,0E0,0E0,0E0,0E0,0E0,0E0,0E0,0E0,0E0,0E0,0E0,0E0],"parents":[2147483647,0,0,1,1,2,2,3,3,4,4,5,5,6,6,7,7,8,8,9,9,10,10,11,11,12,12,13,13,14,14],"right_children":[2,4,6,8,10,12,14,16,18,20,22,24,26,28,30,-1,-1,-1,-1,-1,-1,-1,-1,-1,-1,-1,-1,-1,-1,-1,-1],"split_conditions":[5E-1,1.715E-1,9.165E2,6.0950005E-1,9.8675E2,5E-1,7.3950005E-1,6.1455E2,9.355E-1,2.905E-1,5E-1,5E-1,3.275E-1,5E-1,5E-1,-5.7730477E-2,3.7089363E-3,-7.3440425E-2,-1.3173182E-1,-1.0668415E-1,-1.4248447E-1,-1.0621121E-1,-4.2122215E-2,-7.673391E-2,-1.3257705E-1,1.8481312E-2,-3.9761126E-2,2.5413016E-2,9.39767E-2,2.947304E-3,5.4590773E-2],"split_indices":[0,7,3,10,3,5,10,3,10,12,14,11,12,5,6,0,0,0,0,0,0,0,0,0,0,0,0,0,0,0,0],"split_type":[0,0,0,0,0,0,0,0,0,0,0,0,0,0,0,0,0,0,0,0,0,0,0,0,0,0,0,0,0,0,0],"sum_hessian":[3.0392715E4,1.6136351E4,1.4256365E4,2.2429854E3,1.3893365E4,5.1921133E3,9.064252E3,1.5281218E3,7.148635E2,6.029028E3,7.8643374E3,2.05016E3,3.1419536E3,3.5726677E3,5.491584E3,3.771125E2,1.1510093E3,5.918853E2,1.2297825E2,1.6081467E3,4.420881E3,6.2925757E3,1.5717617E3,8.696743E2,1.1804856E3,1.1032927E3,2.0386609E3,5.0289618E2,3.0697715E3,3.0408208E3,2.450763E3],"tree_param":{"num_deleted":"0","num_feature":"30","num_nodes":"31","size_leaf_vector":"0"}},{"base_weights":[-4.3358326E-1,-9.0893173E-1,1.01365976E-1,-3.1138095E-1,-1.0061779E0,-5.058807E-1,4.3631706E-1,-1.0340901E-1,-7.5756323E-1,-8.5660666E-1,-1.2301986E0,-9.944421E-1,-1.8239914E-1,7.506846E-1,2.1764381E-1,-4.9976924E-1,6.0344193E-2,-9.5457506E-1,-5.0804925E-1,-2.955001E-1,-9.5915604E-1,-1.0239798E0,-1.3302109E0,-7.022585E-1,-1.208272E0,2.8284386E-1,-3.475741E-1,9.211028E-1,4.5113677E-1,5.7625804E-2,6.7538583E-1],"categories":[],"categories_nodes":[],"categories_segments":[],"categories_sizes":[],"default_left":[true,true,true,true,true,true,true,true,true,true,true,true,true,true,true,false,false,false,false,false,false,false,false,false,false,false,false,false,false,false,false],"id":2,"left_children":[1,3,5,7,9,11,13,15,17,19,21,23,25,27,29,-1,-1,-1,-1,-1,-1,-1,-1,-1,-1,-1,-1,-1,-1,-1,-1],"loss_changes":[7.6788813E3,9.2882715E2,2.890267E3,2.0772202E2,4.597041E2,7.9819226E2,6.294011E2,9.9243576E1,3.4505066E1,4.7437354E2,1.12134766E2,1.2486536E2,2.3375418E2,1.9135278E2,3.9568018E2,0E0,0E0,0E0,0E0,0E0,0E0,0E0,0E0,0E0,0E0,0E0,0E0,0E0,0E0,0E0,0E0],"parents":[2147483647,0,0,1,1,2,2,3,3,4,4,5,5,6,6,7,7,8,8,9,9,10,10,11,11,12,12,13,13,14,14],"right_children":[2,4,6,8,10,12,14,16,18,20,22,24,26,28,30,-1,-1,-1,-1,-1,-1,-1,-1,-1,-1,-1,-1,-1,-1,-1,-1],"split_conditions":[5E-1,1.715E-1,8.191666E2,6.0950005E-1,1.2185004E0,5E-1,3.905E-1,5E-1,1.367E3,5.5050004E-1,3.505E-1,5E-1,3.735E-1,7.365E-1,5E-1,-4.9976926E-2,6.0344194E-3,-9.545751E-2,-5.0804924E-2,-2.955001E-2,-9.591561E-2,-1.0239798E-1,-1.330211E-1,-7.022586E-2,-1.208272E-1,2.8284386E-2,-3.4757413E-2,9.211028E-2,4.511368E-2,5.7625803E-3,6.753858E-2],"split_indices":[0,7,3,10,2,5,7,5,3,10,12,11,7,10,4,0,0,0,0,0,0,0,0,0,0,0,0,0,0,0,0],"split_type":[0,0,0,0,0,0,0,0,0,0,0,0,0,0,0,0,0,0,0,0,0,0,0,0,0,0,0,0,0,0,0],"sum_hessian":[3.0196295E4,1.5988466E4,1.4207829E4,2.2383875E3,1.3750078E4,5.0506987E3,9.157131E3,1.5275884E3,7.10799E2,8.247993E3,5.502085E3,2.0111458E3,3.0395527E3,3.7555986E3,5.401532E3,4.4600153E2,1.0815868E3,3.956081E2,3.1519092E2,1.2750952E3,6.9728984E3,1.8006016E3,3.7014834E3,8.516751E2,1.1594707E3,7.962025E2,2.2433503E3,2.3924282E3,1.3631704E3,4.0032107E3,1.3983213E3],"tree_param":{"num_deleted":"0","num_feature":"30","num_nodes":"31","size_leaf_vector":"0"}},{"base_weights":[-3.9425564E-1,-8.2979023E-1,9.163945E-2,-2.2833607E-1,-9.127167E-1,3.9108184E-1,-4.669304E-1,-5.650526E-2,-6.389492E-1,-9.568049E-1,-1.4137033E-1,2.3811543E-1,7.838394E-1,-9.1319615E-1,-1.69982E-1,-3.444269E-1,1.500043E-1,-4.8306492E-1,-1.0678853E0,-1.0444442E0,-6.564928E-1,3.90534E-2,-7.111328E-1,6.468614E-1,9.838903E-2,1.0282501E0,5.654044E-1,-6.406198E-1,-1.1143228E0,2.2923183E-1,-3.2497448E-1],"categories":[],"categories_nodes":[],"categories_segments":[],"categories_sizes":[],"default_left":[true,true,true,true,true,true,true,true,true,true,true,true,true,true,true,false,false,false,false,false,false,false,false,false,false,false,false,false,false,false,false],"id":3,"left_children":[1,3,5,7,9,11,13,15,17,19,21,23,25,27,29,-1,-1,-1,-1,-1,-1,-1,-1,-1,-1,-1,-1,-1,-1,-1,-1],"loss_changes":[6.3316147E3,7.8669727E2,2.3656826E3,1.3494073E2,4.7137793E2,5.529883E2,6.5397864E2,8.030658E1,3.7214615E1,3.444961E2,7.721066E1,3.7848306E2,1.37182E2,1.0739636E2,1.8354568E2,0E0,0E0,0E0,0E0,0E0,0E0,0E0,0E0,0E0,0E0,0E0,0E0,0E0,0E0,0E0,0E0],"parents":[2147483647,0,0,1,1,2,2,3,3,4,4,5,5,6,6,7,7,8,8,9,9,10,10,11,11,12,12,13,13,14,14],"right_children":[2,4,6,8,10,12,14,16,18,20,22,24,26,28,30,-1,-1,-1,-1,-1,-1,-1,-1,-1,-1,-1,-1,-1,-1,-1,-1],"split_conditions":[5E-1,1.4950001E-1,1.0657997E0,6.0950005E-1,5E-1,5E-1,5E-1,1.2595E3,9.235E-1,5E-1,1.0818408E0,2.625E-1,7.95E-1,5E-1,3.935E-1,-3.444269E-2,1.500043E-2,-4.830649E-2,-1.0678853E-1,-1.0444442E-1,-6.5649286E-2,3.9053399E-3,-7.111328E-2,6.468614E-2,9.838903E-3,1.0282501E-1,5.654044E-2,-6.4061984E-2,-1.1143228E-1,2.2923185E-2,-3.2497447E-2],"split_indices":[0,7,2,10,9,4,5,3,10,8,2,7,10,11,7,0,0,0,0,0,0,0,0,0,0,0,0,0,0,0,0],"split_type":[0,0,0,0,0,0,0,0,0,0,0,0,0,0,0,0,0,0,0,0,0,0,0,0,0,0,0,0,0,0,0],"sum_hessian":[2.9917793E4,1.5776098E4,1.4141696E4,1.9120457E3,1.3864052E4,9.206503E3,4.9351924E3,1.348762E3,5.632838E2,1.3114235E4,7.49816E2,6.627077E3,2.5794263E3,1.9710084E3,2.9641843E3,5.6305975E2,7.8570215E2,4.1469952E2,1.4858426E2,1.0149771E4,2.964464E3,5.701887E2,1.7962723E2,1.6873605E3,4.939717E3,1.2155826E3,1.3638436E3,8.386354E2,1.1323729E3,8.288466E2,2.1353376E3],"tree_param":{"num_deleted":"0","num_feature":"30","num_nodes":"31","size_leaf_vector":"0"}},{"base_weights":[-3.591116E-1,-7.592619E-1,8.293145E-2,-4.0730608E-1,-8.927116E-1,-4.0807334E-1,3.6416012E-1,-1.0509074E-1,-8.22764E-1,-6.847475E-1,-1.0249068E0,-8.3167726E-1,-1.43244E-1,6.9231904E-1,2.0404696E-1,-1.8359119E-1,5.883755E-1,-1.0894517E0,-3.8736153E-1,-7.182257E-1,7.7611065E-1,-1.1109035E0,-7.2225714E-1,-5.713086E-1,-1.0309385E0,5.004501E-1,-2.2908245E-1,9.596431E-2,7.8772163E-1,9.274432E-3,4.4968313E-1],"categories":[],"categories_nodes":[],"categories_segments":[],"categories_sizes":[],"default_left":[true,true,true,true,true,true,true,true,true,true,true,true,true,true,true,false,false,false,false,false,false,false,false,false,false,false,false,false,false,false,false],"id":4,"left_children":[1,3,5,7,9,11,13,15,17,19,21,23,25,27,29,-1,-1,-1,-1,-1,-1,-1,-1,-1,-1,-1,-1,-1,-1,-1,-1],"loss_changes":[5.235076E3,7.292471E2,1.9419933E3,5.3636304E2,3.0892578E2,5.7445526E2,4.696914E2,1.348132E2,2.0847571E2,2.1476709E2,1.7835645E2,1.0162024E2,1.7431384E2,1.6672607E2,2.875878E2,0E0,0E0,0E0,0E0,0E0,0E0,0E0,0E0,0E0,0E0,0E0,0E0,0E0,0E0,0E0,0E0],"parents":[2147483647,0,0,1,1,2,2,3,3,4,4,5,5,6,6,7,7,8,8,9,9,10,10,11,11,12,12,13,13,14,14],"right_children":[2,4,6,8,10,12,14,16,18,20,22,24,26,28,30,-1,-1,-1,-1,-1,-1,-1,-1,-1,-1,-1,-1,-1,-1,-1,-1],"split_conditions":[5E-1,5.8949995E-1,9.340714E2,1.1910027E0,2.915E-1,5E-1,6.135E-1,5E-1,5E-1,5E-1,5E-1,5E-1,1.9350001E-1,5E-1,5E-1,-1.835912E-2,5.883755E-2,-1.0894517E-1,-3.8736153E-2,-7.1822576E-2,7.761107E-2,-1.11090355E-1,-7.222571E-2,-5.7130862E-2,-1.03093855E-1,5.004501E-2,-2.2908246E-2,9.596432E-3,7.8772165E-2,9.2744327E-4,4.4968314E-2],"split_indices":[0,10,3,2,12,5,10,9,5,6,8,11,7,5,6,0,0,0,0,0,0,0,0,0,0,0,0,0,0,0,0],"split_type":[0,0,0,0,0,0,0,0,0,0,0,0,0,0,0,0,0,0,0,0,0,0,0,0,0,0,0,0,0,0,0],"sum_hessian":[2.9594797E4,1.5533081E4,1.4061716E4,4.2715317E3,1.1261549E4,5.1207715E3,8.940945E3,2.4734963E3,1.7980354E3,4.378947E3,6.882602E3,1.969056E3,3.1517153E3,2.9308062E3,6.0101387E3,2.2226296E3,2.5086667E2,1.1141233E3,6.839121E2,4.281341E3,9.760629E1,5.3575903E3,1.5250118E3,8.553124E2,1.1137437E3,3.7026962E2,2.7814458E3,4.044741E2,2.526332E3,3.3527092E3,2.6574294E3],"tree_param":{"num_deleted":"0","num_feature":"30","num_nodes":"31","size_leaf_vector":"0"}},{"base_weights":[-3.2768792E-1,-6.9653225E-1,7.51001E-2,-3.3134758E-1,-8.123203E-1,-3.7070414E-1,3.2965386E-1,-1.0870307E-1,-6.222481E-1,-8.5260844E-1,-1.145239E-1,-7.643986E-1,-1.2907593E-1,1.9033062E-1,6.852469E-1,-4.4840112E-1,5.0956782E-2,-6.5877205E-1,9.001338E-1,-9.189911E-1,-4.889307E-1,9.499921E-1,-2.1538529E-1,-5.191241E-1,-9.557301E-1,-2.922019E-1,1.8311146E-1,4.506089E-1,6.157315E-3,1.0246129E0,5.6067777E-1],"categories":[],"categories_nodes":[],"categories_segments":[],"categories_sizes":[],"default_left":[true,true,true,true,true,true,true,true,true,true,true,true,true,true,true,false,false,false,false,false,false,false,false,false,false,false,false,false,false,false,false],"id":5,"left_children":[1,3,5,7,9,11,13,15,17,19,21,23,25,27,29,-1,-1,-1,-1,-1,-1,-1,-1,-1,-1,-1,-1,-1,-1,-1,-1],"loss_changes":[4.3428833E3,6.44937E2,1.5858832E3,2.3795685E2,3.2558545E2,4.8309424E2,4.4056714E2,1.1299532E2,8.9174255E1,2.6395898E2,6.822354E1,9.015234E1,1.6040872E2,3.0643637E2,1.0527002E2,0E0,0E0,0E0,0E0,0E0,0E0,0E0,0E0,0E0,0E0,0E0,0E0,0E0,0E0,0E0,0E0],"parents":[2147483647,0,0,1,1,2,2,3,3,4,4,5,5,6,6,7,7,8,8,9,9,10,10,11,11,12,12,13,13,14,14],"right_children":[2,4,6,8,10,12,14,16,18,20,22,24,26,28,30,-1,-1,-1,-1,-1,-1,-1,-1,-1,-1,-1,-1,-1,-1,-1,-1],"split_conditions":[5E-1,2.7850002E-1,9.340714E2,5.7449996E-1,5E-1,5E-1,5E-1,5E-1,5E-1,5E-1,5.45E-2,5E-1,5E-1,4.145E-1,1.995E-1,-4.4840112E-2,5.0956784E-3,-6.587721E-2,9.001338E-2,-9.189911E-2,-4.889307E-2,9.499922E-2,-2.153853E-2,-5.191241E-2,-9.557301E-2,-2.9220192E-2,1.8311147E-2,4.506089E-2,6.157315E-4,1.0246129E-1,5.6067776E-2],"split_indices":[0,7,3,10,9,5,4,5,6,4,12,11,14,7,7,0,0,0,0,0,0,0,0,0,0,0,0,0,0,0,0],"split_type":[0,0,0,0,0,0,0,0,0,0,0,0,0,0,0,0,0,0,0,0,0,0,0,0,0,0,0,0,0,0,0],"sum_hessian":[2.9230648E4,1.5257864E4,1.3972784E4,3.6740662E3,1.1583798E4,5.078415E3,8.894369E3,2.0819739E3,1.5920922E3,1.0951289E4,6.3250885E2,1.9306183E3,3.1477966E3,6.39163E3,2.5027393E3,6.650919E2,1.416882E3,1.5553447E3,3.674747E1,9.259595E3,1.6916943E3,5.4013905E1,5.7849493E2,8.4767175E2,1.0829465E3,2.0675254E3,1.0802714E3,2.647985E3,3.7436448E3,6.7005896E2,1.8326803E3],"tree_param":{"num_deleted":"0","num_feature":"30","num_nodes":"31","size_leaf_vector":"0"}},{"base_weights":[-2.9917416E-1,-6.3950914E-1,6.802886E-2,-3.2765973E-1,-7.6052237E-1,2.9120433E-1,-3.526164E-1,-6.049298E-2,-7.074367E-1,-7.908995E-1,1.05474755E-1,1.6569658E-1,6.201326E-1,-7.105932E-1,-1.2726074E-1,-1.0465389E-1,1.0422498E0,-9.5659107E-1,-3.133514E-1,-5.9514266E-1,-9.1849357E-1,-4.8638695E-1,5.8531314E-1,3.564278E-1,-5.1566012E-2,8.191533E-1,4.2298543E-1,-4.8348913E-1,-8.8785547E-1,1.8670626E-1,-2.94752E-1],"categories":[],"categories_nodes":[],"categories_segments":[],"categories_sizes":[],"default_left":[true,true,true,true,true,true,true,true,true,true,true,true,true,true,true,false,false,false,false,false,false,false,false,false,false,false,false,false,false,false,false],"id":6,"left_children":[1,3,5,7,9,11,13,15,17,19,21,23,25,27,29,-1,-1,-1,-1,-1,-1,-1,-1,-1,-1,-1,-1,-1,-1,-1,-1],"loss_changes":[3.6063154E3,5.649253E2,1.3032491E3,4.2494916E2,2.8389697E2,3.7433508E2,3.881283E2,1.1990363E2,1.6953278E2,2.5979736E2,1.0436989E2,2.7212146E2,9.792584E1,7.4404175E1,1.5541785E2,0E0,0E0,0E0,0E0,0E0,0E0,0E0,0E0,0E0,0E0,0E0,0E0,0E0,0E0,0E0,0E0],"parents":[2147483647,0,0,1,1,2,2,3,3,4,4,5,5,6,6,7,7,8,8,9,9,10,10,11,11,12,12,13,13,14,14],"right_children":[2,4,6,8,10,12,14,16,18,20,22,24,26,28,30,-1,-1,-1,-1,-1,-1,-1,-1,-1,-1,-1,-1,-1,-1,-1,-1],"split_conditions":[5E-1,5.8949995E-1,1.0657997E0,1.1910027E0,5E-1,5E-1,5E-1,5E-1,5E-1,2.915E-1,1.06275E3,3.7150002E-1,5E-1,5E-1,3.275E-1,-1.0465389E-2,1.0422498E-1,-9.565911E-2,-3.133514E-2,-5.9514266E-2,-9.184936E-2,-4.8638698E-2,5.8531314E-2,3.564278E-2,-5.1566013E-3,8.1915334E-2,4.2298544E-2,-4.8348915E-2,-8.878555E-2,1.8670626E-2,-2.94752E-2],"split_indices":[0,10,2,2,1,4,5,6,5,12,3,12,17,11,12,0,0,0,0,0,0,0,0,0,0,0,0,0,0,0,0],"split_type":[0,0,0,0,0,0,0,0,0,0,0,0,0,0,0,0,0,0,0,0,0,0,0,0,0,0,0,0,0,0,0],"sum_hessian":[2.885563E4,1.4975312E4,1.3880319E4,4.187608E3,1.0787704E4,9.069015E3,4.811304E3,2.4589424E3,1.7286655E3,1.0422204E4,3.6549982E2,6.5653906E3,2.5036245E3,1.8578931E3,2.9534111E3,2.3651323E3,9.381E1,1.0582046E3,6.70461E2,4.1148306E3,6.3073735E3,1.636412E2,2.018586E2,3.495824E3,3.0695667E3,1.2443221E3,1.2593024E3,8.1607935E2,1.0418137E3,1.0274023E3,1.9260088E3],"tree_param":{"num_deleted":"0","num_feature":"30","num_nodes":"31","size_leaf_vector":"0"}},{"base_weights":[-2.7336162E-1,-5.137474E-1,1.7539667E-1,-5.874754E-1,7.3420025E-2,-3.975049E-1,3.288049E-1,-8.3121544E-1,-4.3110964E-1,3.3576706E-1,-4.254259E-1,1.508489E-1,-5.4643106E-1,2.0995252E-1,6.993369E-1,-6.2023175E-1,-9.8972404E-1,-1.06870785E-1,-6.216483E-1,5.458257E-1,-1.3036112E-1,-6.585635E-1,1.984765E-1,-4.285643E-2,7.6710093E-1,-2.2431846E-1,-7.053545E-1,6.543901E-2,5.080371E-1,9.1413254E-1,5.5141646E-1],"categories":[],"categories_nodes":[],"categories_segments":[],"categories_sizes":[],"default_left":[true,true,true,true,true,true,true,true,true,true,true,true,true,true,true,false,false,false,false,false,false,false,false,false,false,false,false,false,false,false,false],"id":7,"left_children":[1,3,5,7,9,11,13,15,17,19,21,23,25,27,29,-1,-1,-1,-1,-1,-1,-1,-1,-1,-1,-1,-1,-1,-1,-1,-1],"loss_changes":[3.071248E3,8.0261523E2,8.729834E2,6.273965E2,2.7092404E2,1.7142474E2,3.4486523E2,2.1462354E2,6.1996204E2,1.3289392E2,1.0392053E2,5.3619366E1,8.431891E1,2.5554791E2,5.993451E1,0E0,0E0,0E0,0E0,0E0,0E0,0E0,0E0,0E0,0E0,0E0,0E0,0E0,0E0,0E0,0E0],"parents":[2147483647,0,0,1,1,2,2,3,3,4,4,5,5,6,6,7,7,8,8,9,9,10,10,11,11,12,12,13,13,14,14],"right_children":[2,4,6,8,10,12,14,16,18,20,22,24,26,28,30,-1,-1,-1,-1,-1,-1,-1,-1,-1,-1,-1,-1,-1,-1,-1,-1],"split_conditions":[5E-1,5E-1,5E-1,9.845E2,5.185E-1,2.4849999E-1,5E-1,3.8349998E-1,8.1850004E-1,1.0258044E0,5E-1,5E-1,5E-1,5E-1,6.9850004E-1,-6.2023174E-2,-9.89724E-2,-1.0687078E-2,-6.2164832E-2,5.4582573E-2,-1.3036112E-2,-6.585635E-2,1.984765E-2,-4.285643E-3,7.67101E-2,-2.2431847E-2,-7.053545E-2,6.543901E-3,5.080371E-2,9.141325E-2,5.5141646E-2],"split_indices":[1,18,5,3,12,12,4,12,10,2,25,4,18,14,10,0,0,0,0,0,0,0,0,0,0,0,0,0,0,0,0],"split_type":[0,0,0,0,0,0,0,0,0,0,0,0,0,0,0,0,0,0,0,0,0,0,0,0,0,0,0,0,0,0,0],"sum_hessian":[2.846857E4,1.853813E4,9.93044E3,1.6470057E4,2.0680735E3,2.0971316E3,7.8333086E3,6.4349946E3,1.00350625E4,1.3555211E3,7.1255237E2,4.4790598E2,1.6492256E3,5.9320894E3,1.9012191E3,2.762658E3,3.6723364E3,3.7149348E3,6.320128E3,9.3430817E2,4.212129E2,5.1867883E2,1.9387358E2,3.4149496E2,1.0641101E2,5.456636E2,1.103562E3,3.9960134E3,1.936076E3,7.7323016E2,1.127989E3],"tree_param":{"num_deleted":"0","num_feature":"30","num_nodes":"31","size_leaf_vector":"0"}},{"base_weights":[-2.495082E-1,-5.435219E-1,5.9611972E-2,-2.2772758E-1,-6.4772105E-1,-2.887547E-1,2.5655916E-1,-9.380149E-2,-5.5639243E-1,-7.3899907E-1,-3.3986288E-1,-6.045635E-1,-1.05710745E-1,8.530529E-2,4.6462122E-1,-1.5385349E-1,5.420899E-1,-5.8947134E-1,8.792189E-1,-9.811121E-1,-6.3908416E-1,-2.13949E-1,-8.803417E-1,-3.842434E-1,-7.860591E-1,-1.8351634E-1,4.357821E-1,2.8977522E-1,-1.412131E-1,6.554951E-1,2.2566767E-1],"categories":[],"categories_nodes":[],"categories_segments":[],"categories_sizes":[],"default_left":[true,true,true,true,true,true,true,true,true,true,true,true,true,true,true,false,false,false,false,false,false,false,false,false,false,false,false,false,false,false,false],"id":8,"left_children":[1,3,5,7,9,11,13,15,17,19,21,23,25,27,29,-1,-1,-1,-1,-1,-1,-1,-1,-1,-1,-1,-1,-1,-1,-1,-1],"loss_changes":[2.555124E3,4.7398193E2,9.4040424E2,1.5736636E2,3.0417676E2,2.861021E2,3.119525E2,9.715888E1,4.9677917E1,2.0148975E2,1.6854068E2,7.232379E1,1.321675E2,2.2254898E2,1.8014758E2,0E0,0E0,0E0,0E0,0E0,0E0,0E0,0E0,0E0,0E0,0E0,0E0,0E0,0E0,0E0,0E0],"parents":[2147483647,0,0,1,1,2,2,3,3,4,4,5,5,6,6,7,7,8,8,9,9,10,10,11,11,12,12,13,13,14,14],"right_children":[2,4,6,8,10,12,14,16,18,20,22,24,26,28,30,-1,-1,-1,-1,-1,-1,-1,-1,-1,-1,-1,-1,-1,-1,-1,-1],"split_conditions":[5E-1,2.7850002E-1,9.340714E2,8.205E-1,5E-1,5E-1,5E-1,5E-1,5E-1,5E-1,5E-1,5E-1,5E-1,4.895E-1,5E-1,-1.5385349E-2,5.420899E-2,-5.8947135E-2,8.792189E-2,-9.811121E-2,-6.390842E-2,-2.13949E-2,-8.8034175E-2,-3.842434E-2,-7.860591E-2,-1.8351635E-2,4.357821E-2,2.8977523E-2,-1.4121311E-2,6.5549515E-2,2.2566767E-2],"split_indices":[0,7,3,10,8,5,6,9,6,19,13,11,4,7,16,0,0,0,0,0,0,0,0,0,0,0,0,0,0,0,0],"split_type":[0,0,0,0,0,0,0,0,0,0,0,0,0,0,0,0,0,0,0,0,0,0,0,0,0,0,0,0,0,0,0],"sum_hessian":[2.8112287E4,1.4407815E4,1.3704472E4,3.5753293E3,1.0832486E4,4.94938E3,8.755092E3,2.5411382E3,1.034191E3,8.354138E3,2.4783481E3,1.8152301E3,3.1341497E3,4.8031094E3,3.951983E3,2.3225596E3,2.1857869E2,1.01147437E3,2.2716692E1,2.4378748E3,5.916263E3,2.0112002E3,4.6714798E2,8.2132697E2,9.939032E2,2.7409685E3,3.9318097E2,2.5242664E3,2.2788428E3,2.1960527E3,1.75593E3],"tree_param":{"num_deleted":"0","num_feature":"30","num_nodes":"31","size_leaf_vector":"0"}},{"base_weights":[-2.2792284E-1,-4.3669614E-1,1.545566E-1,1.00983225E-1,-5.0278556E-1,-3.358868E-1,2.8369528E-1,2.1451961E-2,6.568964E-1,-5.479536E-1,2.3640244E-1,1.4413236E-1,-4.6862897E-1,1.5979277E-1,5.605092E-1,6.7403674E-2,-6.7222697E-1,1.2112166E-1,7.6290065E-1,-4.707771E-1,-9.1256875E-1,6.339512E-1,-1.8727404E-1,-4.701605E-2,6.304414E-1,-1.7941655E-1,-6.142531E-1,5.7987574E-2,5.3484505E-1,7.387471E-1,3.24336E-1],"categories":[],"categories_nodes":[],"categories_segments":[],"categories_sizes":[],"default_left":[true,true,true,true,true,true,true,true,true,true,true,true,true,true,true,false,false,false,false,false,false,false,false,false,false,false,false,false,false,false,false],"id":9,"left_children":[1,3,5,7,9,11,13,15,17,19,21,23,25,27,29,-1,-1,-1,-1,-1,-1,-1,-1,-1,-1,-1,-1,-1,-1,-1,-1],"loss_changes":[2.2155564E3,6.378489E2,6.2063043E2,8.6885544E1,5.337976E2,1.3021733E2,2.659275E2,5.4888622E1,1.3877037E1,4.234624E2,1.552707E2,4.1232426E1,6.728937E1,2.0459808E2,1.0069568E2,0E0,0E0,0E0,0E0,0E0,0E0,0E0,0E0,0E0,0E0,0E0,0E0,0E0,0E0,0E0,0E0],"parents":[2147483647,0,0,1,1,2,2,3,3,4,4,5,5,6,6,7,7,8,8,9,9,10,10,11,11,12,12,13,13,14,14],"right_children":[2,4,6,8,10,12,14,16,18,20,22,24,26,28,30,-1,-1,-1,-1,-1,-1,-1,-1,-1,-1,-1,-1,-1,-1,-1,-1],"split_conditions":[5E-1,1.255E-1,5E-1,5E-1,5E-1,2.4849999E-1,5E-1,9.235E-1,5E-1,5E-1,4.0649998E-1,5E-1,5E-1,5E-1,5.025E-1,6.7403675E-3,-6.72227E-2,1.2112166E-2,7.629006E-2,-4.707771E-2,-9.125688E-2,6.339512E-2,-1.8727405E-2,-4.701605E-3,6.3044146E-2,-1.7941656E-2,-6.142531E-2,5.7987575E-3,5.3484507E-2,7.387471E-2,3.24336E-2],"split_indices":[1,7,5,18,6,12,8,10,5,13,12,8,18,4,7,0,0,0,0,0,0,0,0,0,0,0,0,0,0,0,0],"split_type":[0,0,0,0,0,0,0,0,0,0,0,0,0,0,0,0,0,0,0,0,0,0,0,0,0,0,0,0,0,0,0],"sum_hessian":[2.7744117E4,1.7947484E4,9.796631E3,1.9645002E3,1.5982985E4,2.0415653E3,7.755066E3,1.7195349E3,2.4496524E2,1.506283E4,9.2015466E2,4.4224463E2,1.5993207E3,5.35827E3,2.396796E3,1.6135505E3,1.0598439E2,4.081541E1,2.0414984E2,1.2433398E4,2.629432E3,4.744589E2,4.4569577E2,3.1811127E2,1.24133354E2,5.363502E2,1.0629705E3,4.215231E3,1.1430388E3,1.3647233E3,1.0320728E3],"tree_param":{"num_deleted":"0","num_feature":"30","num_nodes":"31","size_leaf_vector":"0"}},{"base_weights":[-2.0776314E-1,-3.9916733E-1,1.4006522E-1,-6.3694537E-1,-2.4945047E-1,-3.058615E-1,2.568248E-1,-4.8173258E-1,-8.3184725E-1,-3.9748135E-1,7.990685E-2,1.3026975E-1,-4.2771816E-1,1.3175352E-1,5.128139E-1,-1.8187296E-1,-6.1543566E-1,-3.6704385E-1,-9.3944746E-1,-2.9219872E-1,-8.6195457E-1,-3.3569103E-1,2.1339458E-1,-3.7807632E-2,6.69609E-1,-1.620067E-1,-5.635623E-1,3.461084E-1,-3.7814856E-2,3.8249117E-1,7.9551315E-1],"categories":[],"categories_nodes":[],"categories_segments":[],"categories_sizes":[],"default_left":[true,true,true,true,true,true,true,true,true,true,true,true,true,true,true,false,false,false,false,false,false,false,false,false,false,false,false,false,false,false,false],"id":10,"left_children":[1,3,5,7,9,11,13,15,17,19,21,23,25,27,29,-1,-1,-1,-1,-1,-1,-1,-1,-1,-1,-1,-1,-1,-1,-1,-1],"loss_changes":[1.8259763E3,6.2964185E2,5.069873E2,2.0635986E2,5.293925E2,1.0744589E2,2.4697998E2,1.5252539E2,1.5112524E2,3.6606348E2,1.8689658E2,4.0097923E1,5.6925873E1,1.8847356E2,9.2989136E1,0E0,0E0,0E0,0E0,0E0,0E0,0E0,0E0,0E0,0E0,0E0,0E0,0E0,0E0,0E0,0E0],"parents":[2147483647,0,0,1,1,2,2,3,3,4,4,5,5,6,6,7,7,8,8,9,9,10,10,11,11,12,12,13,13,14,14],"right_children":[2,4,6,8,10,12,14,16,18,20,22,24,26,28,30,-1,-1,-1,-1,-1,-1,-1,-1,-1,-1,-1,-1,-1,-1,-1,-1],"split_conditions":[5E-1,9.845E2,5E-1,5E-1,5E-1,2.4849999E-1,5E-1,6.495E-1,3.265E-1,5E-1,5E-1,5E-1,5E-1,3.385E-1,5E-1,-1.8187298E-2,-6.1543565E-2,-3.6704388E-2,-9.394475E-2,-2.9219871E-2,-8.619546E-2,-3.3569105E-2,2.133946E-2,-3.7807634E-3,6.69609E-2,-1.6200671E-2,-5.635623E-2,3.461084E-2,-3.7814856E-3,3.8249116E-2,7.955132E-2],"split_indices":[1,3,5,11,14,12,14,10,7,13,5,4,18,12,8,0,0,0,0,0,0,0,0,0,0,0,0,0,0,0,0],"split_type":[0,0,0,0,0,0,0,0,0,0,0,0,0,0,0,0,0,0,0,0,0,0,0,0,0,0,0,0,0,0,0],"sum_hessian":[2.7425186E4,1.7690338E4,9.734848E3,6.833779E3,1.0856559E4,2.0196824E3,7.7151655E3,3.806162E3,3.027617E3,7.4899614E3,3.3665974E3,4.4105493E2,1.5786274E3,5.183919E3,2.5312468E3,1.1744811E3,2.631681E3,5.699595E2,2.4576575E3,6.1072534E3,1.3827081E3,8.180823E2,2.5485151E3,3.3697223E2,1.04082695E2,5.347831E2,1.0438444E3,2.289135E3,2.894784E3,1.7341614E3,7.970854E2],"tree_param":{"num_deleted":"0","num_feature":"30","num_nodes":"31","size_leaf_vector":"0"}},{"base_weights":[-1.8952782E-1,-4.3103227E-1,5.536241E-2,-3.0789408E-1,-6.524683E-1,2.0879197E-1,-2.3940219E-1,-4.5120972E-1,1.7321866E-2,2.5006405E-1,-6.7986983E-1,3.8944584E-1,5.3490546E-2,-6.3407615E-2,-4.7015178E-1,-4.8421687E-1,8.0136096E-1,-2.091365E-2,1.0090898E0,-5.9802E-1,4.1415423E-1,-5.4515505E-1,-8.377997E-1,2.3743883E-1,6.199726E-1,1.3194513E-1,-4.982461E-1,2.9672325E-1,-1.9269472E-1,-8.0611505E-2,-5.8026946E-1],"categories":[],"categories_nodes":[],"categories_segments":[],"categories_sizes":[],"default_left":[true,true,true,true,true,true,true,true,true,true,true,true,true,true,true,false,false,false,false,false,false,false,false,false,false,false,false,false,false,false,false],"id":11,"left_children":[1,3,5,7,9,11,13,15,17,19,21,23,25,27,29,-1,-1,-1,-1,-1,-1,-1,-1,-1,-1,-1,-1,-1,-1,-1,-1],"loss_changes":[1.6030554E3,3.7191016E2,6.087379E2,4.0885077E2,1.20756836E2,2.483316E2,1.8709756E2,2.5211914E2,1.018049E2,2.0343714E1,1.002312E2,1.4323907E2,2.0616072E2,1.2182269E2,8.546982E1,0E0,0E0,0E0,0E0,0E0,0E0,0E0,0E0,0E0,0E0,0E0,0E0,0E0,0E0,0E0,0E0],"parents":[2147483647,0,0,1,1,2,2,3,3,4,4,5,5,6,6,7,7,8,8,9,9,10,10,11,11,12,12,13,13,14,14],"right_children":[2,4,6,8,10,12,14,16,18,20,22,24,26,28,30,-1,-1,-1,-1,-1,-1,-1,-1,-1,-1,-1,-1,-1,-1,-1,-1],"split_conditions":[5E-1,1.1913822E0,1.0657997E0,5E-1,5.7499997E-2,5E-1,5E-1,5E-1,5E-1,1.55E-2,5E-1,5E-1,5E-1,2.435E-1,3.905E-1,-4.842169E-2,8.01361E-2,-2.091365E-3,1.0090899E-1,-5.9802003E-2,4.1415423E-2,-5.4515507E-2,-8.3779976E-2,2.3743883E-2,6.199726E-2,1.31945135E-2,-4.982461E-2,2.9672325E-2,-1.9269472E-2,-8.061151E-3,-5.8026947E-2],"split_indices":[0,2,2,14,7,17,11,6,6,7,11,25,13,12,7,0,0,0,0,0,0,0,0,0,0,0,0,0,0,0,0],"split_type":[0,0,0,0,0,0,0,0,0,0,0,0,0,0,0,0,0,0,0,0,0,0,0,0,0,0,0,0,0,0,0],"sum_hessian":[2.7103754E4,1.3645829E4,1.3457925E4,8.770847E3,4.8749824E3,8.851088E3,4.6068374E3,6.0877285E3,2.6831182E3,1.4340724E2,4.731575E3,4.090879E3,4.760209E3,2.6142231E3,1.9926141E3,5.932024E3,1.5570447E2,2.5844587E3,9.865942E1,2.2819977E1,1.2058727E2,2.5558647E3,2.1757104E3,2.4665142E3,1.6243647E3,4.1682607E3,5.91948E2,6.902442E2,1.9239789E3,4.395262E2,1.553088E3],"tree_param":{"num_deleted":"0","num_feature":"30","num_nodes":"31","size_leaf_vector":"0"}},{"base_weights":[-1.730163E-1,-3.9604932E-1,5.0124243E-2,-4.383262E-1,2.384281E-1,2.2779682E-1,-1.666022E-1,-5.120218E-1,-9.967519E-2,2.8414586E-1,-1.2132075E0,1.2705396E-1,5.441182E-1,-5.628473E-1,-3.1250816E-2,-3.50844E-1,-6.673921E-1,1.3878745E-1,-2.8349146E-1,-1.6228291E-1,3.9237997E-1,-1.4473251E0,5.7041943E-1,-2.8175427E-2,3.234084E-1,6.891824E-1,3.9836365E-1,-8.492663E-1,-4.2320883E-1,1.09744065E-1,-2.7677697E-1],"categories":[],"categories_nodes":[],"categories_segments":[],"categories_sizes":[],"default_left":[true,true,true,true,true,true,true,true,true,true,true,true,true,true,true,false,false,false,false,false,false,false,false,false,false,false,false,false,false,false,false],"id":12,"left_children":[1,3,5,7,9,11,13,15,17,19,21,23,25,27,29,-1,-1,-1,-1,-1,-1,-1,-1,-1,-1,-1,-1,-1,-1,-1,-1],"loss_changes":[1.332235E3,3.5921167E2,5.153297E2,3.1320264E2,5.589109E1,2.3428073E2,3.2333304E2,2.5790576E2,9.8423706E1,3.9309746E1,1.1575989E1,1.7005408E2,3.7278137E1,6.1033417E1,1.5563852E2,0E0,0E0,0E0,0E0,0E0,0E0,0E0,0E0,0E0,0E0,0E0,0E0,0E0,0E0,0E0,0E0],"parents":[2147483647,0,0,1,1,2,2,3,3,4,4,5,5,6,6,7,7,8,8,9,9,10,10,11,11,12,12,13,13,14,14],"right_children":[2,4,6,8,10,12,14,16,18,20,22,24,26,28,30,-1,-1,-1,-1,-1,-1,-1,-1,-1,-1,-1,-1,-1,-1,-1,-1],"split_conditions":[5E-1,5E-1,4.3449998E-1,5E-1,5E-1,5E-1,5E-1,5.1549995E-1,8.1350005E-1,6.032E2,7.99E-1,5E-1,5E-1,5E-1,5E-1,-3.50844E-2,-6.673921E-2,1.3878745E-2,-2.8349146E-2,-1.6228292E-2,3.9238E-2,-1.4473252E-1,5.7041943E-2,-2.8175428E-3,3.234084E-2,6.891824E-2,3.9836366E-2,-8.492663E-2,-4.2320885E-2,1.0974406E-2,-2.7677698E-2],"split_indices":[0,9,12,4,24,4,5,7,10,3,12,6,17,1,29,0,0,0,0,0,0,0,0,0,0,0,0,0,0,0,0],"split_type":[0,0,0,0,0,0,0,0,0,0,0,0,0,0,0,0,0,0,0,0,0,0,0,0,0,0,0,0,0,0,0],"sum_hessian":[2.6767668E4,1.3386672E4,1.3380996E4,1.2550695E4,8.359761E2,7.352971E3,6.0280254E3,1.0307185E4,2.243511E3,8.1123145E2,2.474464E1,5.5779067E3,1.7750646E3,1.5340094E3,4.494016E3,5.0606426E3,5.246542E3,9.7669775E2,1.2668132E3,1.5820215E2,6.530293E2,2.2040207E1,2.7044334E0,3.1156577E3,2.4622488E3,8.877705E2,8.8729407E2,5.0109937E2,1.03291E3,2.8550432E3,1.6389728E3],"tree_param":{"num_deleted":"0","num_feature":"30","num_nodes":"31","size_leaf_vector":"0"}},{"base_weights":[-1.5770584E-1,-3.1350136E-1,1.17557645E-1,-1.804599E-1,-5.2503514E-1,-2.5382215E-1,2.1332636E-1,-2.4703847E-1,3.4147745E-1,-3.868206E-1,-7.265054E-1,-3.4426266E-1,1.978613E-1,1.2590593E-1,4.9872428E-1,-4.7800135E-2,-3.8651922E-1,4.9566174E-1,-3.9776675E-2,-3.053314E-1,-8.2851136E-1,1.8357525E-2,-8.1397986E-1,-4.1116488E-1,2.0003983E-1,4.6267173E-1,-3.1386453E-1,2.721679E-1,-6.8419896E-2,6.838383E-1,3.7981588E-1],"categories":[],"categories_nodes":[],"categories_segments":[],"categories_sizes":[],"default_left":[true,true,true,true,true,true,true,true,true,true,true,true,true,true,true,false,false,false,false,false,false,false,false,false,false,false,false,false,false,false,false],"id":13,"left_children":[1,3,5,7,9,11,13,15,17,19,21,23,25,27,29,-1,-1,-1,-1,-1,-1,-1,-1,-1,-1,-1,-1,-1,-1,-1,-1],"loss_changes":[1.1353983E3,4.7569617E2,3.4040256E2,3.6079724E2,1.8147217E2,8.022647E1,1.8975632E2,2.558305E2,6.907468E1,1.3916235E2,1.729834E2,5.9629944E1,4.4590946E1,1.6559232E2,3.900125E1,0E0,0E0,0E0,0E0,0E0,0E0,0E0,0E0,0E0,0E0,0E0,0E0,0E0,0E0,0E0,0E0],"parents":[2147483647,0,0,1,1,2,2,3,3,4,4,5,5,6,6,7,7,8,8,9,9,10,10,11,11,12,12,13,13,14,14],"right_children":[2,4,6,8,10,12,14,16,18,20,22,24,26,28,30,-1,-1,-1,-1,-1,-1,-1,-1,-1,-1,-1,-1,-1,-1,-1,-1],"split_conditions":[5E-1,4.525E-1,5E-1,5E-1,5E-1,5E-1,5E-1,8.1850004E-1,1.0258044E0,5E-1,2.525E-1,5E-1,8.94E-1,5E-1,6.9850004E-1,-4.7800136E-3,-3.8651925E-2,4.9566176E-2,-3.9776675E-3,-3.053314E-2,-8.2851134E-2,1.8357525E-3,-8.139799E-2,-4.1116487E-2,2.0003984E-2,4.6267174E-2,-3.1386454E-2,2.721679E-2,-6.8419897E-3,6.8383835E-2,3.798159E-2],"split_indices":[1,12,5,18,11,25,4,10,2,13,7,8,10,26,10,0,0,0,0,0,0,0,0,0,0,0,0,0,0,0,0],"split_type":[0,0,0,0,0,0,0,0,0,0,0,0,0,0,0,0,0,0,0,0,0,0,0,0,0,0,0,0,0,0,0],"sum_hessian":[2.647367E4,1.6905334E4,9.568336E3,1.0379275E4,6.526059E3,1.9612375E3,7.6070986E3,9.205539E3,1.173736E3,3.872399E3,2.6536602E3,1.6342499E3,3.2698776E2,5.8244487E3,1.7826497E3,3.791292E3,5.4142476E3,8.3553455E2,3.3820142E2,3.2706714E3,6.0172736E2,2.7896948E2,2.3746907E3,1.4555834E3,1.7866649E2,2.1554323E2,1.1144452E2,3.3229697E3,2.501479E3,6.953668E2,1.0872828E3],"tree_param":{"num_deleted":"0","num_feature":"30","num_nodes":"31","size_leaf_vector":"0"}},{"base_weights":[-1.4370012E-1,-2.5469834E-1,2.0206942E-1,-3.5728836E-1,2.9353494E-2,-2.4498938E-1,3.268956E-1,-1.6257718E-1,-4.7958672E-1,1.1369109E-1,-4.8860744E-1,1.7308432E-1,-3.810186E-1,5.2452624E-1,1.1364048E-1,-2.2815838E-1,2.491643E-1,-3.6973768E-1,-6.468374E-1,1.9239211E-1,-2.318034E-1,-9.8527163E-1,-3.3473554E-1,3.1424046E-1,-7.258067E-1,-2.6296407E-1,-7.81869E-1,5.7319856E-1,5.2553166E-2,5.0569564E-1,-5.4368316E-3],"categories":[],"categories_nodes":[],"categories_segments":[],"categories_sizes":[],"default_left":[true,true,true,true,true,true,true,true,true,true,true,true,true,true,true,false,false,false,false,false,false,false,false,false,false,false,false,false,false,false,false],"id":14,"left_children":[1,3,5,7,9,11,13,15,17,19,21,23,25,27,29,-1,-1,-1,-1,-1,-1,-1,-1,-1,-1,-1,-1,-1,-1,-1,-1],"loss_changes":[1.0051964E3,5.777467E2,3.5526535E2,3.467622E2,2.2989133E2,7.910565E1,2.0965643E2,1.5182727E2,1.6411304E2,1.23095245E2,5.5987534E1,4.3607445E1,4.943271E1,5.9290955E1,1.11796875E2,0E0,0E0,0E0,0E0,0E0,0E0,0E0,0E0,0E0,0E0,0E0,0E0,0E0,0E0,0E0,0E0],"parents":[2147483647,0,0,1,1,2,2,3,3,4,4,5,5,6,6,7,7,8,8,9,9,10,10,11,11,12,12,13,13,14,14],"right_children":[2,4,6,8,10,12,14,16,18,20,22,24,26,28,30,-1,-1,-1,-1,-1,-1,-1,-1,-1,-1,-1,-1,-1,-1,-1,-1],"split_conditions":[5E-1,5E-1,5E-1,2.965E-1,5E-1,3.25E-1,5E-1,5E-1,5E-1,9.6150005E-1,1.2645E3,5E-1,5E-1,5E-1,5E-1,-2.2815838E-2,2.4916431E-2,-3.697377E-2,-6.468374E-2,1.9239211E-2,-2.3180341E-2,-9.852716E-2,-3.3473555E-2,3.1424046E-2,-7.258067E-2,-2.6296407E-2,-7.81869E-2,5.7319857E-2,5.255317E-3,5.0569564E-2,-5.436832E-4],"split_indices":[6,8,5,12,13,7,16,22,11,10,3,23,15,13,18,0,0,0,0,0,0,0,0,0,0,0,0,0,0,0,0],"split_type":[0,0,0,0,0,0,0,0,0,0,0,0,0,0,0,0,0,0,0,0,0,0,0,0,0,0,0,0,0,0,0],"sum_hessian":[2.6188424E4,1.9824625E4,6.363798E3,1.456425E4,5.2603765E3,1.3888253E3,4.9749727E3,5.6196064E3,8.944644E3,4.524457E3,7.359195E2,3.408821E2,1.0479432E3,2.5813186E3,2.3936538E3,4.8478916E3,7.717148E2,5.400708E3,3.543935E3,3.685395E3,8.3906177E2,1.727897E2,5.6312976E2,2.951794E2,4.5702694E1,8.10808E2,2.3713525E2,2.3398103E3,2.4150812E2,5.568874E2,1.8367665E3],"tree_param":{"num_deleted":"0","num_feature":"30","num_nodes":"31","size_leaf_vector":"0"}},{"base_weights":[-1.3062957E-1,-3.147879E-1,4.8211277E-2,-3.5438463E-1,2.5810406E-1,1.5710735E-1,-2.1062553E-1,-4.4011918E-1,-1.0720863E-1,2.983653E-1,-1.1135248E0,3.842102E-1,4.330922E-2,2.5195462E-1,-3.198248E-1,-6.7663455E-1,-3.5914445E-1,-1.46094E-1,9.666512E-1,9.184401E-1,2.2503428E-1,-1.3583468E0,6.067724E-1,4.719636E-1,1.7149791E-1,2.0636648E-1,-9.335977E-2,3.5941282E-1,-2.07831E-1,-5.787456E-1,-1.98703E-1],"categories":[],"categories_nodes":[],"categories_segments":[],"categories_sizes":[],"default_left":[true,true,true,true,true,true,true,true,true,true,true,true,true,true,true,false,false,false,false,false,false,false,false,false,false,false,false,false,false,false,false],"id":15,"left_children":[1,3,5,7,9,11,13,15,17,19,21,23,25,27,29,-1,-1,-1,-1,-1,-1,-1,-1,-1,-1,-1,-1,-1,-1,-1,-1],"loss_changes":[8.551626E2,2.9028027E2,3.713421E2,2.5352441E2,4.6034454E1,2.396322E2,1.9715546E2,1.6989856E2,1.2887329E2,3.6387062E1,1.0852455E1,5.7697144E1,1.3770891E2,3.6916145E1,9.888452E1,0E0,0E0,0E0,0E0,0E0,0E0,0E0,0E0,0E0,0E0,0E0,0E0,0E0,0E0,0E0,0E0],"parents":[2147483647,0,0,1,1,2,2,3,3,4,4,5,5,6,6,7,7,8,8,9,9,10,10,11,11,12,12,13,13,14,14],"right_children":[2,4,6,8,10,12,14,16,18,20,22,24,26,28,30,-1,-1,-1,-1,-1,-1,-1,-1,-1,-1,-1,-1,-1,-1,-1,-1],"split_conditions":[5E-1,5E-1,5E-1,5E-1,5E-1,2.245E-1,2.595E-1,5E-1,5E-1,5.2500002E-2,7.99E-1,9.235E-1,5E-1,7.2249997E-1,5E-1,-6.766345E-2,-3.5914447E-2,-1.4609399E-2,9.666512E-2,9.1844015E-2,2.2503428E-2,-1.3583468E-1,6.067724E-2,4.7196362E-2,1.7149791E-2,2.0636648E-2,-9.335977E-3,3.5941284E-2,-2.07831E-2,-5.787456E-2,-1.9870302E-2],"split_indices":[0,9,11,8,24,12,7,19,6,12,12,10,17,10,5,0,0,0,0,0,0,0,0,0,0,0,0,0,0,0,0],"split_type":[0,0,0,0,0,0,0,0,0,0,0,0,0,0,0,0,0,0,0,0,0,0,0,0,0,0,0,0,0,0,0],"sum_hessian":[2.5963676E4,1.2791296E4,1.317238E4,1.1964709E4,8.2658704E2,9.271943E3,3.9004365E3,8.8828545E3,3.0818547E3,8.0377637E2,2.2810656E1,3.0943281E3,6.1776157E3,7.4466144E2,3.1557751E3,2.2636646E3,6.61919E3,2.9749917E3,1.06862976E2,8.378444E1,7.1999194E2,2.0153006E1,2.6576495E0,2.189742E3,9.045861E2,2.8166328E3,3.3609827E3,6.037703E2,1.4089111E2,1.0045599E3,2.151215E3],"tree_param":{"num_deleted":"0","num_feature":"30","num_nodes":"31","size_leaf_vector":"0"}},{"base_weights":[-1.1888889E-1,-2.1575439E-1,1.8051398E-1,-3.0587184E-1,2.9061133E-2,4.0189403E-1,-1.9160623E-2,-9.161336E-2,-3.983353E-1,1.04248874E-1,-4.4062513E-1,4.399139E-1,-3.4269556E-1,3.5699624E-1,-1.15587346E-1,-4.4378906E-1,1.2261562E-1,-3.1350467E-1,-5.875215E-1,2.0147273E-2,3.725944E-1,-3.4835657E-1,-1.2394882E0,5.3314406E-1,2.0271032E-1,-4.4314262E-1,1.0493925E0,-1.9817325E-1,5.781461E-1,1.8176743E-1,-2.0720854E-1],"categories":[],"categories_nodes":[],"categories_segments":[],"categories_sizes":[],"default_left":[true,true,true,true,true,true,true,true,true,true,true,true,true,true,true,false,false,false,false,false,false,false,false,false,false,false,false,false,false,false,false],"id":16,"left_children":[1,3,5,7,9,11,13,15,17,19,21,23,25,27,29,-1,-1,-1,-1,-1,-1,-1,-1,-1,-1,-1,-1,-1,-1,-1,-1],"loss_changes":[7.4585223E2,4.2868524E2,2.779046E2,2.813308E2,1.8470195E2,8.4550446E1,1.1996749E2,3.2317166E2,1.5903223E2,1.0173369E2,5.2766876E1,6.262982E1,2.0796322E1,8.297293E1,7.175658E1,0E0,0E0,0E0,0E0,0E0,0E0,0E0,0E0,0E0,0E0,0E0,0E0,0E0,0E0,0E0,0E0],"parents":[2147483647,0,0,1,1,2,2,3,3,4,4,5,5,6,6,7,7,8,8,9,9,10,10,11,11,12,12,13,13,14,14],"right_children":[2,4,6,8,10,12,14,16,18,20,22,24,26,28,30,-1,-1,-1,-1,-1,-1,-1,-1,-1,-1,-1,-1,-1,-1,-1,-1],"split_conditions":[5E-1,5E-1,5E-1,5.875E-1,5E-1,5E-1,5E-1,5E-1,5E-1,5E-1,6.958685E-1,5.315E-1,9.55E-1,7.798334E2,3.285E-1,-4.4378906E-2,1.2261562E-2,-3.1350467E-2,-5.875215E-2,2.0147273E-3,3.725944E-2,-3.483566E-2,-1.2394883E-1,5.3314406E-2,2.0271031E-2,-4.431426E-2,1.04939245E-1,-1.9817326E-2,5.781461E-2,1.8176744E-2,-2.0720854E-2],"split_indices":[6,8,16,10,13,20,18,5,11,1,2,12,12,3,7,0,0,0,0,0,0,0,0,0,0,0,0,0,0,0,0],"split_type":[0,0,0,0,0,0,0,0,0,0,0,0,0,0,0,0,0,0,0,0,0,0,0,0,0,0,0,0,0,0,0],"sum_hessian":[2.5715094E4,1.94294E4,6.2856943E3,1.4201521E4,5.2278784E3,2.9803523E3,3.305342E3,4.281748E3,9.919773E3,4.5071484E3,7.207298E2,2.8359536E3,1.4439885E2,6.73876E2,2.631466E3,1.6190631E3,2.6626848E3,6.8506265E3,3.0691475E3,3.4324626E3,1.0746858E3,6.4739215E2,7.333762E1,2.0349084E3,8.010451E2,1.3531665E2,9.082195E0,1.9199648E2,4.8187955E2,6.1959595E2,2.0118701E3],"tree_param":{"num_deleted":"0","num_feature":"30","num_nodes":"31","size_leaf_vector":"0"}},{"base_weights":[-1.0808371E-1,-2.2959055E-1,1.0096134E-1,-3.4114286E-1,-2.3643995E-2,2.6371288E-1,-5.004549E-2,-4.0035215E-1,7.531141E-2,2.058176E-1,-1.7953321E-1,2.9539976E-1,-3.9932847E-1,-1.2932752E-1,3.230481E-1,-2.6548162E-1,-5.5887437E-1,-3.7009516E-1,2.523419E-1,-1.303977E-1,2.713947E-1,2.7083196E-2,-3.3272386E-1,1.8365824E-1,4.613352E-1,6.712398E-1,-4.8563564E-1,1.5178812E-1,-2.1909785E-1,4.3887788E-1,-1.2184184E-1],"categories":[],"categories_nodes":[],"categories_segments":[],"categories_sizes":[],"default_left":[true,true,true,true,true,true,true,true,true,true,true,true,true,true,true,false,false,false,false,false,false,false,false,false,false,false,false,false,false,false,false],"id":17,"left_children":[1,3,5,7,9,11,13,15,17,19,21,23,25,27,29,-1,-1,-1,-1,-1,-1,-1,-1,-1,-1,-1,-1,-1,-1,-1,-1],"loss_changes":[6.474862E2,3.7034497E2,2.3031076E2,2.5786963E2,2.0267813E2,9.487341E1,1.4384383E2,1.9558936E2,1.0279269E2,5.057354E1,1.0679669E2,7.973709E1,1.93721E1,1.012346E2,4.39739E1,0E0,0E0,0E0,0E0,0E0,0E0,0E0,0E0,0E0,0E0,0E0,0E0,0E0,0E0,0E0,0E0],"parents":[2147483647,0,0,1,1,2,2,3,3,4,4,5,5,6,6,7,7,8,8,9,9,10,10,11,11,12,12,13,13,14,14],"right_children":[2,4,6,8,10,12,14,16,18,20,22,24,26,28,30,-1,-1,-1,-1,-1,-1,-1,-1,-1,-1,-1,-1,-1,-1,-1,-1],"split_conditions":[5E-1,1.3675E3,5E-1,5E-1,8.125E-1,5E-1,5E-1,4.0850002E-1,5E-1,5E-1,2.545E-1,5E-1,7.4E-2,2.265E-1,7.3450005E-1,-2.6548162E-2,-5.588744E-2,-3.700952E-2,2.523419E-2,-1.3039771E-2,2.713947E-2,2.7083196E-3,-3.3272386E-2,1.8365825E-2,4.6133522E-2,6.712398E-2,-4.8563566E-2,1.5178812E-2,-2.1909786E-2,4.388779E-2,-1.2184184E-2],"split_indices":[1,3,18,18,10,20,4,12,5,19,12,6,10,12,7,0,0,0,0,0,0,0,0,0,0,0,0,0,0,0,0],"split_type":[0,0,0,0,0,0,0,0,0,0,0,0,0,0,0,0,0,0,0,0,0,0,0,0,0,0,0,0,0,0,0],"sum_hessian":[2.5489266E4,1.611966E4,9.3696045E3,1.0455638E4,5.6640225E3,4.50908E3,4.860525E3,9.154183E3,1.3014552E3,2.2911853E3,3.372837E3,4.303948E3,2.05132E2,4.0092224E3,8.513025E2,4.947516E3,4.206667E3,3.698433E2,9.316119E2,3.7378632E2,1.9173989E3,1.4363619E3,1.9364751E3,2.5732314E3,1.7307164E3,1.4797987E1,1.9033403E2,9.702367E2,3.0389856E3,6.754568E2,1.7584573E2],"tree_param":{"num_deleted":"0","num_feature":"30","num_nodes":"31","size_leaf_vector":"0"}},{"base_weights":[-9.827713E-2,-1.8145774E-1,1.566439E-1,-1.2404831E-1,-5.075957E-1,-2.1036498E-1,2.581649E-1,-1.8153224E-2,-3.3740082E-1,-2.5926617E-1,-6.1567026E-1,-2.9417357E-1,2.889407E-1,4.1438353E-1,9.334816E-2,-1.13318175E-1,1.7505603E-1,-1.8056314E-1,-5.563087E-1,8.367072E-2,-4.241153E-1,-2.8580037E-1,-7.2965556E-1,-2.3698376E-1,-9.468169E-1,6.239297E-1,-2.3357522E-2,4.6003836E-1,-1.914021E-2,3.8992253E-1,5.3176945E-3],"categories":[],"categories_nodes":[],"categories_segments":[],"categories_sizes":[],"default_left":[true,true,true,true,true,true,true,true,true,true,true,true,true,true,true,false,false,false,false,false,false,false,false,false,false,false,false,false,false,false,false],"id":18,"left_children":[1,3,5,7,9,11,13,15,17,19,21,23,25,27,29,-1,-1,-1,-1,-1,-1,-1,-1,-1,-1,-1,-1,-1,-1,-1,-1],"loss_changes":[5.3583466E2,3.56662E2,2.3170027E2,3.6604367E2,7.636755E1,5.6480377E1,1.2536368E2,1.9912573E2,1.8441046E2,4.9014736E1,7.446765E1,4.2866196E1,2.0331266E1,4.9493317E1,6.1907043E1,0E0,0E0,0E0,0E0,0E0,0E0,0E0,0E0,0E0,0E0,0E0,0E0,0E0,0E0,0E0,0E0],"parents":[2147483647,0,0,1,1,2,2,3,3,4,4,5,5,6,6,7,7,8,8,9,9,10,10,11,11,12,12,13,13,14,14],"right_children":[2,4,6,8,10,12,14,16,18,20,22,24,26,28,30,-1,-1,-1,-1,-1,-1,-1,-1,-1,-1,-1,-1,-1,-1,-1,-1],"split_conditions":[5E-1,5E-1,5E-1,1.2185004E0,7.7750003E-1,5E-1,5E-1,5E-1,5E-1,2.2150001E-1,5E-1,1.8962941E0,8.5150003E-1,5E-1,5E-1,-1.1331818E-2,1.7505603E-2,-1.8056314E-2,-5.563087E-2,8.367072E-3,-4.2411532E-2,-2.8580038E-2,-7.2965555E-2,-2.3698376E-2,-9.4681695E-2,6.239297E-2,-2.3357521E-3,4.6003837E-2,-1.914021E-3,3.8992252E-2,5.317695E-4],"split_indices":[6,13,5,2,10,25,16,14,11,12,5,2,10,13,18,0,0,0,0,0,0,0,0,0,0,0,0,0,0,0,0],"split_type":[0,0,0,0,0,0,0,0,0,0,0,0,0,0,0,0,0,0,0,0,0,0,0,0,0,0,0,0,0,0,0],"sum_hessian":[2.5267527E4,1.9051365E4,6.216163E3,1.6200927E4,2.8504375E3,1.3466852E3,4.869478E3,1.0827771E4,5.373156E3,8.653857E2,1.9850518E3,1.1534835E3,1.9320168E2,2.49917E3,2.370308E3,7.254829E3,3.5729424E3,3.1314424E3,2.2417134E3,2.811012E2,5.842845E2,5.106768E2,1.4743749E3,1.061803E3,9.168053E1,9.273304E1,1.00468636E2,2.2610005E3,2.3816945E2,5.4174414E2,1.828564E3],"tree_param":{"num_deleted":"0","num_feature":"30","num_nodes":"31","size_leaf_vector":"0"}},{"base_weights":[-8.932681E-2,-2.3282842E-1,4.5557972E-2,-2.6904425E-1,2.6998365E-1,1.4301847E-1,-1.4904402E-1,-3.3539876E-1,1.958023E-2,3.0505082E-1,-1.0291299E0,7.0929214E-2,3.886049E-1,-1.774754E-1,7.243028E-1,-1.08368784E-1,-4.2188442E-1,1.13885395E-1,-3.40798E-1,6.05727E-1,1.8824421E-1,-1.2899194E0,6.245616E-1,-1.2733988E-3,2.6151899E-1,4.6037185E-1,1.2238866E-1,-1.2640688E-1,-6.2152106E-1,4.1873744E-1,9.3814915E-1],"categories":[],"categories_nodes":[],"categories_segments":[],"categories_sizes":[],"default_left":[true,true,true,true,true,true,true,true,true,true,true,true,true,true,true,false,false,false,false,false,false,false,false,false,false,false,false,false,false,false,false],"id":19,"left_children":[1,3,5,7,9,11,13,15,17,19,21,23,25,27,29,-1,-1,-1,-1,-1,-1,-1,-1,-1,-1,-1,-1,-1,-1,-1,-1],"loss_changes":[4.8512454E2,2.2120331E2,2.4506125E2,2.1695776E2,3.7505592E1,1.5238931E2,1.0719355E2,1.8080444E2,7.203576E1,2.7831856E1,1.0158216E1,9.160358E1,3.726474E1,9.463551E1,8.503181E0,0E0,0E0,0E0,0E0,0E0,0E0,0E0,0E0,0E0,0E0,0E0,0E0,0E0,0E0,0E0,0E0],"parents":[2147483647,0,0,1,1,2,2,3,3,4,4,5,5,6,6,7,7,8,8,9,9,10,10,11,11,12,12,13,13,14,14],"right_children":[2,4,6,8,10,12,14,16,18,20,22,24,26,28,30,-1,-1,-1,-1,-1,-1,-1,-1,-1,-1,-1,-1,-1,-1,-1,-1],"split_conditions":[5E-1,5E-1,5.345E-1,5E-1,5E-1,5E-1,5E-1,5.5050004E-1,9.395E-1,1.4750001E-1,7.99E-1,5E-1,9.2649996E-1,5E-1,5E-1,-1.0836879E-2,-4.2188443E-2,1.1388539E-2,-3.40798E-2,6.0572702E-2,1.882442E-2,-1.2899195E-1,6.245616E-2,-1.2733988E-4,2.61519E-2,4.6037186E-2,1.2238867E-2,-1.2640688E-2,-6.2152106E-2,4.1873746E-2,9.381492E-2],"split_indices":[0,9,12,4,24,4,28,10,10,12,12,8,10,20,21,0,0,0,0,0,0,0,0,0,0,0,0,0,0,0,0],"split_type":[0,0,0,0,0,0,0,0,0,0,0,0,0,0,0,0,0,0,0,0,0,0,0,0,0,0,0,0,0,0,0],"sum_hessian":[2.5061479E4,1.2142526E4,1.2918952E4,1.1327137E4,8.153899E2,8.608107E3,4.310844E3,9.209677E3,2.1174592E3,7.947035E2,2.0686373E1,6.6556904E3,1.9524176E3,4.175703E3,1.3514114E2,2.5411802E3,6.668497E3,1.6788224E3,4.3863675E2,2.2117725E2,5.7352625E2,1.8058496E1,2.6278756E0,4.8277495E3,1.8279406E3,1.537269E3,4.1514856E2,3.7461528E3,4.2955045E2,5.685668E1,7.828446E1],"tree_param":{"num_deleted":"0","num_feature":"30","num_nodes":"31","size_leaf_vector":"0"}},{"base_weights":[-8.115845E-2,-1.8154915E-1,8.839863E-2,-1.3419347E-1,-5.8801717E-1,2.3224491E-1,-4.47739E-2,-7.44937E-2,-4.5969433E-1,-8.194984E-1,-4.6464327E-1,2.594177E-1,-3.3675224E-1,1.3841401E-1,-1.6148195E-1,2.6997566E-2,-2.3230204E-1,-5.86636E-1,-9.829059E-2,-1.2146308E0,-7.4983674E-1,-5.623615E-1,1.1137469E-1,3.8279334E-1,1.4884107E-1,6.4740974E-1,-4.167016E-1,5.3008728E-2,4.6199423E-1,-1.1666495E-1,-5.5650616E-1],"categories":[],"categories_nodes":[],"categories_segments":[],"categories_sizes":[],"default_left":[true,true,true,true,true,true,true,true,true,true,true,true,true,true,true,false,false,false,false,false,false,false,false,false,false,false,false,false,false,false,false],"id":20,"left_children":[1,3,5,7,9,11,13,15,17,19,21,23,25,27,29,-1,-1,-1,-1,-1,-1,-1,-1,-1,-1,-1,-1,-1,-1,-1,-1],"loss_changes":[4.232271E2,3.005227E2,1.7714612E2,2.717956E2,4.614978E1,6.881932E1,1.0269523E2,1.893452E2,9.939493E1,1.4645386E1,6.00166E1,5.783316E1,1.6246655E1,5.1638573E1,5.187712E1,0E0,0E0,0E0,0E0,0E0,0E0,0E0,0E0,0E0,0E0,0E0,0E0,0E0,0E0,0E0,0E0],"parents":[2147483647,0,0,1,1,2,2,3,3,4,4,5,5,6,6,7,7,8,8,9,9,10,10,11,11,12,12,13,13,14,14],"right_children":[2,4,6,8,10,12,14,16,18,20,22,24,26,28,30,-1,-1,-1,-1,-1,-1,-1,-1,-1,-1,-1,-1,-1,-1,-1,-1],"split_conditions":[5E-1,5E-1,5E-1,5E-1,1.7556449E0,5E-1,4.505E-1,4.1750002E-1,5E-1,1.8650001E-1,5E-1,5E-1,7.4E-2,5E-1,5E-1,2.6997568E-3,-2.3230204E-2,-5.8663603E-2,-9.829059E-3,-1.2146308E-1,-7.498368E-2,-5.6236148E-2,1.113747E-2,3.8279336E-2,1.4884107E-2,6.474098E-2,-4.1670162E-2,5.300873E-3,4.6199422E-2,-1.1666495E-2,-5.5650618E-2],"split_indices":[1,15,18,13,2,20,7,12,14,12,18,17,10,4,20,0,0,0,0,0,0,0,0,0,0,0,0,0,0,0,0],"split_type":[0,0,0,0,0,0,0,0,0,0,0,0,0,0,0,0,0,0,0,0,0,0,0,0,0,0,0,0,0,0,0],"sum_hessian":[2.486166E4,1.561583E4,9.24583E3,1.3987538E4,1.6282924E3,4.444433E3,4.8013975E3,1.1820737E4,2.1668003E3,5.64153E2,1.0641393E3,4.24238E3,2.0205342E2,1.8684481E3,2.9329492E3,7.1945415E3,4.6261963E3,1.6030956E3,5.637046E2,8.208981E1,4.8206323E2,9.0981757E2,1.543217E2,2.0039812E3,2.2383984E3,1.4647511E1,1.8740591E2,1.4791953E3,3.8925278E2,2.6352637E3,2.976854E2],"tree_param":{"num_deleted":"0","num_feature":"30","num_nodes":"31","size_leaf_vector":"0"}},{"base_weights":[-7.368517E-2,-1.4400885E-1,1.3948557E-1,-1.15514696E-1,-6.834942E-1,-1.8209973E-1,2.2788306E-1,-1.8930829E-1,7.416833E-2,-9.699684E-1,-4.979426E-1,-1.3110858E-1,-8.605926E-1,3.6654696E-1,8.340418E-2,-1.6034704E-1,-6.7254084E-1,1.2789847E-1,-2.8199384E-1,-6.239164E-1,-1.0880777E0,-1.6298363E-1,-7.2461224E-1,-2.0353733E-1,2.7262598E-1,-9.74688E-1,1.715262E0,4.0765354E-1,-1.7581351E-2,2.3243624E-1,-5.125304E-2],"categories":[],"categories_nodes":[],"categories_segments":[],"categories_sizes":[],"default_left":[true,true,true,true,true,true,true,true,true,true,true,true,true,true,true,false,false,false,false,false,false,false,false,false,false,false,false,false,false,false,false],"id":21,"left_children":[1,3,5,7,9,11,13,15,17,19,21,23,25,27,29,-1,-1,-1,-1,-1,-1,-1,-1,-1,-1,-1,-1,-1,-1,-1,-1],"loss_changes":[3.7021704E2,2.8537344E2,1.7419531E2,2.4691457E2,4.9025146E1,4.5605877E1,9.624924E1,1.7761545E2,9.4590195E1,1.4242126E1,4.295508E1,3.6031E1,2.8766068E1,3.8724182E1,4.7269726E1,0E0,0E0,0E0,0E0,0E0,0E0,0E0,0E0,0E0,0E0,0E0,0E0,0E0,0E0,0E0,0E0],"parents":[2147483647,0,0,1,1,2,2,3,3,4,4,5,5,6,6,7,7,8,8,9,9,10,10,11,11,12,12,13,13,14,14],"right_children":[2,4,6,8,10,12,14,16,18,20,22,24,26,28,30,-1,-1,-1,-1,-1,-1,-1,-1,-1,-1,-1,-1,-1,-1,-1,-1],"split_conditions":[5E-1,5E-1,5E-1,5E-1,5E-1,1.8962941E0,5E-1,5E-1,5E-1,4.2049998E-1,8.145E-1,5E-1,2.1325831E0,5E-1,5E-1,-1.6034706E-2,-6.725409E-2,1.2789847E-2,-2.8199384E-2,-6.239164E-2,-1.08807765E-1,-1.6298363E-2,-7.2461225E-2,-2.0353733E-2,2.7262598E-2,-9.74688E-2,1.7152621E-1,4.0765356E-2,-1.7581352E-3,2.3243625E-2,-5.125304E-3],"split_indices":[6,20,5,8,5,2,16,24,13,12,10,25,2,13,17,0,0,0,0,0,0,0,0,0,0,0,0,0,0,0,0],"split_type":[0,0,0,0,0,0,0,0,0,0,0,0,0,0,0,0,0,0,0,0,0,0,0,0,0,0,0,0,0,0,0],"sum_hessian":[2.4693697E4,1.8568418E4,6.1252793E3,1.763804E4,9.3037915E2,1.3204595E3,4.80482E3,1.2698041E4,4.9399976E3,3.640669E2,5.6631226E2,1.2292688E3,9.119069E1,2.4509646E3,2.3538555E3,1.1981306E4,7.1673535E2,4.293002E3,6.469956E2,9.423817E1,2.6982874E2,2.2925371E2,3.3705853E2,1.0427064E3,1.8656247E2,8.791804E1,3.272653E0,2.2139795E3,2.3698506E2,1.1169469E3,1.2369086E3],"tree_param":{"num_deleted":"0","num_feature":"30","num_nodes":"31","size_leaf_vector":"0"}},{"base_weights":[-6.683656E-2,-1.232977E-1,1.693601E-1,-1.7160137E-1,1.5193287E-1,3.3767644E-2,2.7725846E-1,-2.3956671E-1,4.0297374E-2,2.9979917E-1,-8.999593E-2,1.2399252E-1,-2.7900958E-1,5.309234E-1,2.1309337E-1,-6.170158E-1,-1.9426331E-1,-2.1169688E-1,1.2012748E-1,3.7992758E-1,-6.461377E-2,1.3008393E-1,-4.0721872E-1,-5.1364336E-2,3.4458938E-1,-5.08461E-1,1.105951E-2,5.930536E-1,2.1835065E-1,2.6107633E-3,3.1296402E-1],"categories":[],"categories_nodes":[],"categories_segments":[],"categories_sizes":[],"default_left":[true,true,true,true,true,true,true,true,true,true,true,true,true,true,true,false,false,false,false,false,false,false,false,false,false,false,false,false,false,false,false],"id":22,"left_children":[1,3,5,7,9,11,13,15,17,19,21,23,25,27,29,-1,-1,-1,-1,-1,-1,-1,-1,-1,-1,-1,-1,-1,-1,-1,-1],"loss_changes":[3.2731976E2,2.633706E2,6.926932E1,2.4269962E2,1.05840706E2,5.928326E1,4.2804794E1,2.1805823E2,8.2368004E1,5.363768E1,7.844292E1,6.3077347E1,3.131054E1,1.0195511E1,4.427265E1,0E0,0E0,0E0,0E0,0E0,0E0,0E0,0E0,0E0,0E0,0E0,0E0,0E0,0E0,0E0,0E0],"parents":[2147483647,0,0,1,1,2,2,3,3,4,4,5,5,6,6,7,7,8,8,9,9,10,10,11,11,12,12,13,13,14,14],"right_children":[2,4,6,8,10,12,14,16,18,20,22,24,26,28,30,-1,-1,-1,-1,-1,-1,-1,-1,-1,-1,-1,-1,-1,-1,-1,-1],"split_conditions":[5E-1,5E-1,5E-1,5E-1,4.4349998E-1,9.3149996E-1,1.7449999E-1,5E-1,5E-1,5E-1,5E-1,1.43975E3,5E-1,5E-1,5.106589E-1,-6.1701577E-2,-1.942633E-2,-2.1169689E-2,1.2012748E-2,3.7992757E-2,-6.461377E-3,1.3008393E-2,-4.0721875E-2,-5.1364335E-3,3.445894E-2,-5.08461E-2,1.105951E-3,5.930536E-2,2.1835065E-2,2.6107635E-4,3.1296402E-2],"split_indices":[4,22,0,6,12,10,7,21,5,13,29,3,25,17,2,0,0,0,0,0,0,0,0,0,0,0,0,0,0,0,0],"split_type":[0,0,0,0,0,0,0,0,0,0,0,0,0,0,0,0,0,0,0,0,0,0,0,0,0,0,0,0,0,0,0],"sum_hessian":[2.4541629E4,1.980731E4,4.73432E3,1.6850398E4,2.9569116E3,2.098506E3,2.6358135E3,1.275816E4,4.0922388E3,1.8350774E3,1.1218342E3,1.6291571E3,4.6934906E2,5.3066235E2,2.1051511E3,1.3658497E3,1.139231E4,9.841109E2,3.1081277E3,1.5042705E3,3.3080685E2,6.6267773E2,4.5915643E2,9.080763E2,7.210808E2,2.61636E2,2.0771307E2,4.4192377E2,8.87386E1,6.7776086E2,1.4273904E3],"tree_param":{"num_deleted":"0","num_feature":"30","num_nodes":"31","size_leaf_vector":"0"}},{"base_weights":[-6.057921E-2,-2.062569E-1,2.5298556E-2,-3.9295745E-1,-1.2704255E-1,1.7424108E-1,-7.9439126E-2,5.489124E-1,-4.329864E-1,-2.11741E-1,1.7198682E-2,-7.5591624E-2,2.3689854E-1,-2.2222893E-2,-3.8642776E-1,8.056117E-1,-3.5130432E-1,-5.887053E-1,-3.063162E-1,-2.654313E-1,1.4108877E-1,1.5118392E-1,-1.1066911E-1,6.569854E-2,-5.1152235E-1,2.5826696E-1,-4.2616075E-1,-8.696896E-2,1.8025887E-1,-5.0526008E-2,-4.7280923E-1],"categories":[],"categories_nodes":[],"categories_segments":[],"categories_sizes":[],"default_left":[true,true,true,true,true,true,true,true,true,true,true,true,true,true,true,false,false,false,false,false,false,false,false,false,false,false,false,false,false,false,false],"id":23,"left_children":[1,3,5,7,9,11,13,15,17,19,21,23,25,27,29,-1,-1,-1,-1,-1,-1,-1,-1,-1,-1,-1,-1,-1,-1,-1,-1],"loss_changes":[3.052649E2,1.3378705E2,2.3950006E2,1.018569E2,7.764542E1,9.9242386E1,1.583223E2,2.5776516E1,5.08284E1,7.588965E1,4.0313835E1,7.836243E1,7.191507E1,9.96389E1,4.1063812E1,0E0,0E0,0E0,0E0,0E0,0E0,0E0,0E0,0E0,0E0,0E0,0E0,0E0,0E0,0E0,0E0],"parents":[2147483647,0,0,1,1,2,2,3,3,4,4,5,5,6,6,7,7,8,8,9,9,10,10,11,11,12,12,13,13,14,14],"right_children":[2,4,6,8,10,12,14,16,18,20,22,24,26,28,30,-1,-1,-1,-1,-1,-1,-1,-1,-1,-1,-1,-1,-1,-1,-1,-1],"split_conditions":[1.065875E3,5E-1,8.215E-1,1.295E-1,5E-1,5E-1,5E-1,4.9E-1,5E-1,5E-1,5E-1,5.2849996E-1,5E-1,5E-1,5E-1,8.0561176E-2,-3.5130434E-2,-5.887053E-2,-3.063162E-2,-2.6543131E-2,1.4108877E-2,1.5118392E-2,-1.1066912E-2,6.5698544E-3,-5.1152237E-2,2.5826696E-2,-4.2616077E-2,-8.696896E-3,1.8025888E-2,-5.052601E-3,-4.7280923E-2],"split_indices":[3,19,10,7,1,5,13,10,0,18,26,12,24,6,5,0,0,0,0,0,0,0,0,0,0,0,0,0,0,0,0],"split_type":[0,0,0,0,0,0,0,0,0,0,0,0,0,0,0,0,0,0,0,0,0,0,0,0,0,0,0,0,0,0,0],"sum_hessian":[2.4399328E4,9.048543E3,1.5350785E4,2.694323E3,6.3542197E3,6.337649E3,9.013136E3,1.09320885E2,2.5850022E3,4.0031199E3,2.3510999E3,1.2707219E3,5.0669272E3,7.598085E3,1.415051E3,8.514628E1,2.4174608E1,1.1579082E3,1.4270939E3,3.4746309E3,5.284889E2,1.1479976E3,1.2031023E3,9.603204E2,3.1040158E2,4.9093247E3,1.576023E2,5.7575933E3,1.8404917E3,2.8978445E2,1.1252666E3],"tree_param":{"num_deleted":"0","num_feature":"30","num_nodes":"31","size_leaf_vector":"0"}},{"base_weights":[-5.499348E-2,-2.9348357E-2,-5.127704E-1,-1.371522E-1,7.078273E-2,-5.9500575E-1,-1.13965854E-1,-2.311215E-1,3.567436E-2,3.642207E-4,2.556075E-1,5.493288E-1,-6.292897E-1,-3.4067532E-1,4.003507E-1,3.494263E-2,-3.1360722E-1,-2.3391211E-1,1.956374E-1,7.230954E-2,-1.7560042E-1,3.5163185E-1,9.035827E-2,9.694447E-1,-7.763522E-2,-1.1507427E0,-5.405254E-1,-1.368182E-1,-1.0989898E0,1.7186192E0,2.6872855E-1],"categories":[],"categories_nodes":[],"categories_segments":[],"categories_sizes":[],"default_left":[true,true,true,true,true,true,true,true,true,true,true,true,true,true,true,false,false,false,false,false,false,false,false,false,false,false,false,false,false,false,false],"id":24,"left_children":[1,3,5,7,9,11,13,15,17,19,21,23,25,27,29,-1,-1,-1,-1,-1,-1,-1,-1,-1,-1,-1,-1,-1,-1,-1,-1],"loss_changes":[2.8455353E2,2.4779688E2,4.2102295E1,1.7953412E2,1.5490065E2,4.2158813E1,2.5911509E1,1.5716843E2,1.679849E2,1.0912929E2,5.2070877E1,8.381681E0,4.7295837E1,2.3650871E1,1.1352561E1,0E0,0E0,0E0,0E0,0E0,0E0,0E0,0E0,0E0,0E0,0E0,0E0,0E0,0E0,0E0,0E0],"parents":[2147483647,0,0,1,1,2,2,3,3,4,4,5,5,6,6,7,7,8,8,9,9,10,10,11,11,12,12,13,13,14,14],"right_children":[2,4,6,8,10,12,14,16,18,20,22,24,26,28,30,-1,-1,-1,-1,-1,-1,-1,-1,-1,-1,-1,-1,-1,-1,-1,-1],"split_conditions":[5E-1,5E-1,1.5355E3,5E-1,5E-1,1.215E-1,5.072266E-1,1.5450001E-1,5E-1,5E-1,5.6949997E-1,2.32E-1,5.521107E-1,9.625E-1,5.0937986E-1,3.4942632E-3,-3.1360723E-2,-2.3391211E-2,1.956374E-2,7.230954E-3,-1.7560042E-2,3.5163186E-2,9.035828E-3,9.694447E-2,-7.763522E-3,-1.1507427E-1,-5.405254E-2,-1.3681821E-2,-1.09898984E-1,1.7186193E-1,2.6872857E-2],"split_indices":[20,0,3,14,8,7,2,12,5,11,7,12,2,10,2,0,0,0,0,0,0,0,0,0,0,0,0,0,0,0,0],"split_type":[0,0,0,0,0,0,0,0,0,0,0,0,0,0,0,0,0,0,0,0,0,0,0,0,0,0,0,0,0,0,0],"sum_hessian":[2.4238752E4,2.2953916E4,1.2848374E3,1.1053283E4,1.1900633E4,1.0647823E3,2.2005508E2,7.1599404E3,3.8933425E3,8.618118E3,3.2825142E3,3.0535671E1,1.0342467E3,1.5296576E2,6.708932E1,1.694565E3,5.4653755E3,1.4496978E3,2.4436448E3,6.117494E3,2.500624E3,2.0753972E3,1.207117E3,1.7956879E1,1.2578794E1,1.4870482E2,8.855419E2,1.21486946E2,3.1478819E1,4.9958534E0,6.2093464E1],"tree_param":{"num_deleted":"0","num_feature":"30","num_nodes":"31","size_leaf_vector":"0"}},{"base_weights":[-4.990006E-2,-1.5337838E-2,-3.663308E-1,1.5652013E-1,-8.368268E-2,-4.8593128E-1,-1.6395195E-1,-9.620658E-2,2.532726E-1,-3.4032144E-2,-3.623233E-1,-7.2066945E-1,-3.6356434E-1,9.647973E-2,-3.3063546E-1,-2.7549264E-1,7.5950205E-2,2.758149E-1,-3.825574E-1,1.1834671E-1,-1.0402227E-1,-4.8804232E-1,-2.0286758E-1,1.8430288E0,-7.311161E-1,-2.0589954E-1,-6.8196946E-1,2.5201905E-1,-3.6636335E-1,-2.1016234E-1,-1.3723139E0],"categories":[],"categories_nodes":[],"categories_segments":[],"categories_sizes":[],"default_left":[true,true,true,true,true,true,true,true,true,true,true,true,true,true,true,false,false,false,false,false,false,false,false,false,false,false,false,false,false,false,false],"id":25,"left_children":[1,3,5,7,9,11,13,15,17,19,21,23,25,27,29,-1,-1,-1,-1,-1,-1,-1,-1,-1,-1,-1,-1,-1,-1,-1,-1],"loss_changes":[2.6342776E2,2.550876E2,5.7329834E1,1.511217E2,2.149537E2,4.2545715E1,3.8342625E1,5.2845875E1,6.415854E1,1.4067682E2,4.700827E1,1.4997101E1,4.9139572E1,2.494257E1,6.7271454E1,0E0,0E0,0E0,0E0,0E0,0E0,0E0,0E0,0E0,0E0,0E0,0E0,0E0,0E0,0E0,0E0],"parents":[2147483647,0,0,1,1,2,2,3,3,4,4,5,5,6,6,7,7,8,8,9,9,10,10,11,11,12,12,13,13,14,14],"right_children":[2,4,6,8,10,12,14,16,18,20,22,24,26,28,30,-1,-1,-1,-1,-1,-1,-1,-1,-1,-1,-1,-1,-1,-1,-1,-1],"split_conditions":[5E-1,5.5050004E-1,5E-1,5E-1,5E-1,1.7556449E0,5E-1,3.1550002E-1,5E-1,2.2549999E-1,5E-1,2.985E2,6.895E-1,5E-1,4.211667E2,-2.7549265E-2,7.595021E-3,2.7581489E-2,-3.825574E-2,1.1834672E-2,-1.0402228E-2,-4.8804235E-2,-2.028676E-2,1.8430288E-1,-7.3111616E-2,-2.0589953E-2,-6.8196945E-2,2.5201906E-2,-3.6636334E-2,-2.1016235E-2,-1.372314E-1],"split_indices":[15,10,1,5,13,2,18,10,24,12,0,3,7,26,3,0,0,0,0,0,0,0,0,0,0,0,0,0,0,0,0],"split_type":[0,0,0,0,0,0,0,0,0,0,0,0,0,0,0,0,0,0,0,0,0,0,0,0,0,0,0,0,0,0,0],"sum_hessian":[2.4086432E4,2.171559E4,2.3708416E3,6.178364E3,1.5537226E4,1.4893026E3,8.81539E2,1.7104666E3,4.4678975E3,1.3188339E4,2.3488872E3,5.0865445E2,9.806482E2,3.441887E2,5.373503E2,8.3759015E2,8.7287634E2,4.315466E3,1.524315E2,4.1507817E3,9.037557E3,1.3122303E3,1.0366567E3,1.3523563E0,5.073021E2,6.569785E2,3.2366968E2,2.5795718E2,8.623152E1,4.8272366E2,5.4626633E1],"tree_param":{"num_deleted":"0","num_feature":"30","num_nodes":"31","size_leaf_vector":"0"}},{"base_weights":[-4.525306E-2,-1.1932878E-1,8.640423E-2,-8.7982215E-2,-4.859503E-1,1.5630968E-1,-8.8336416E-2,-1.7680629E-1,5.5876855E-2,-5.900036E-1,-1.0742607E-1,-4.549407E-2,2.0089336E-1,-1.2671174E-1,3.2229066E-1,-2.287983E-1,1.6264942E-1,1.871481E-1,-8.553952E-2,-3.0047083E-1,-7.102986E-1,2.4377906E-1,-2.633171E-1,7.09483E-2,-3.3006558E-1,1.4939424E-1,3.5829103E-1,-1.994999E-1,1.13667056E-1,1.2232738E0,8.4205635E-2],"categories":[],"categories_nodes":[],"categories_segments":[],"categories_sizes":[],"default_left":[true,true,true,true,true,true,true,true,true,true,true,true,true,true,true,false,false,false,false,false,false,false,false,false,false,false,false,false,false,false,false],"id":26,"left_children":[1,3,5,7,9,11,13,15,17,19,21,23,25,27,29,-1,-1,-1,-1,-1,-1,-1,-1,-1,-1,-1,-1,-1,-1,-1,-1],"loss_changes":[2.3374504E2,1.762211E2,1.05430305E2,1.805736E2,4.7510345E1,5.5470383E1,3.890851E1,1.5423087E2,1.001678E2,3.2776978E1,1.4390104E1,3.701149E1,4.087343E1,3.9503193E1,4.517862E1,0E0,0E0,0E0,0E0,0E0,0E0,0E0,0E0,0E0,0E0,0E0,0E0,0E0,0E0,0E0,0E0],"parents":[2147483647,0,0,1,1,2,2,3,3,4,4,5,5,6,6,7,7,8,8,9,9,10,10,11,11,12,12,13,13,14,14],"right_children":[2,4,6,8,10,12,14,16,18,20,22,24,26,28,30,-1,-1,-1,-1,-1,-1,-1,-1,-1,-1,-1,-1,-1,-1,-1,-1],"split_conditions":[1.3675E3,1.36375E3,9.2649996E-1,5E-1,4.8426062E-1,5E-1,5E-1,5E-1,5E-1,6.8050003E-1,1.965E-1,5E-1,5E-1,5E-1,8.5999995E-2,-2.287983E-2,1.6264943E-2,1.871481E-2,-8.553952E-3,-3.0047083E-2,-7.1029864E-2,2.4377907E-2,-2.6331712E-2,7.0948303E-3,-3.300656E-2,1.4939425E-2,3.5829104E-2,-1.9949991E-2,1.1366705E-2,1.2232738E-1,8.420563E-3],"split_indices":[3,3,10,1,2,19,9,18,26,10,12,29,6,6,12,0,0,0,0,0,0,0,0,0,0,0,0,0,0,0,0],"split_type":[0,0,0,0,0,0,0,0,0,0,0,0,0,0,0,0,0,0,0,0,0,0,0,0,0,0,0,0,0,0,0],"sum_hessian":[2.396538E4,1.5336524E4,8.628856E3,1.4129662E4,1.2068627E3,6.1633125E3,2.4655437E3,8.7356875E3,5.393975E3,9.4620087E2,2.6066183E2,1.1152444E3,5.048068E3,2.2554512E3,2.1009271E2,7.5756978E3,1.1599895E3,2.7971592E3,2.5968157E3,2.7876102E2,6.674399E2,7.99591E1,1.8070273E2,7.9194366E2,3.2330072E2,3.8050417E3,1.2430262E3,1.7313561E3,5.2409503E2,4.304812E1,1.670446E2],"tree_param":{"num_deleted":"0","num_feature":"30","num_nodes":"31","size_leaf_vector":"0"}},{"base_weights":[-4.0985554E-2,-1.80266E-2,-4.5817643E-1,-7.545541E-2,1.3081634E-1,-6.172223E-1,-2.5979102E-1,-5.282635E-2,-4.619216E-1,4.9176343E-2,2.7054882E-1,-9.305781E-1,-3.9477775E-1,2.2733197E-1,-4.3297216E-1,-1.1657218E-1,7.8185014E-2,-4.2895296E-1,-1.3949832E0,2.3067782E-2,6.1824834E-1,3.7651968E-1,1.375545E-1,-3.086345E-1,-1.0522093E0,9.00646E-1,-4.6786442E-1,9.607805E-2,1.5478605E0,-3.68972E-1,-1.301931E0],"categories":[],"categories_nodes":[],"categories_segments":[],"categories_sizes":[],"default_left":[true,true,true,true,true,true,true,true,true,true,true,true,true,true,true,false,false,false,false,false,false,false,false,false,false,false,false,false,false,false,false],"id":27,"left_children":[1,3,5,7,9,11,13,15,17,19,21,23,25,27,29,-1,-1,-1,-1,-1,-1,-1,-1,-1,-1,-1,-1,-1,-1,-1,-1],"loss_changes":[2.2839848E2,1.9322198E2,3.9085297E1,1.4262166E2,7.178133E1,4.7703094E1,4.6934578E1,1.2870398E2,2.7152267E1,5.9026123E1,3.2655823E1,2.127829E1,3.8771774E1,2.520315E1,2.2316833E1,0E0,0E0,0E0,0E0,0E0,0E0,0E0,0E0,0E0,0E0,0E0,0E0,0E0,0E0,0E0,0E0],"parents":[2147483647,0,0,1,1,2,2,3,3,4,4,5,5,6,6,7,7,8,8,9,9,10,10,11,11,12,12,13,13,14,14],"right_children":[2,4,6,8,10,12,14,16,18,20,22,24,26,28,30,-1,-1,-1,-1,-1,-1,-1,-1,-1,-1,-1,-1,-1,-1,-1,-1],"split_conditions":[5E-1,5E-1,5E-1,5E-1,5E-1,5E-1,5.13E-1,5E-1,5E-1,5E-1,5.025E-1,3.055E-1,1.22E-1,4.82E-1,9.235E-1,-1.1657218E-2,7.818501E-3,-4.28953E-2,-1.3949832E-1,2.3067782E-3,6.1824836E-2,3.7651967E-2,1.375545E-2,-3.0863449E-2,-1.0522093E-1,9.00646E-2,-4.6786442E-2,9.607806E-3,1.5478605E-1,-3.68972E-2,-1.301931E-1],"split_indices":[20,8,1,24,1,5,10,25,9,26,7,12,7,10,7,0,0,0,0,0,0,0,0,0,0,0,0,0,0,0,0],"split_type":[0,0,0,0,0,0,0,0,0,0,0,0,0,0,0,0,0,0,0,0,0,0,0,0,0,0,0,0,0,0,0],"sum_hessian":[2.3845354E4,2.260253E4,1.242825E3,1.6310038E4,6.2924907E3,6.8863446E2,5.541904E2,1.5408924E4,9.0111444E2,3.9727356E3,2.3197554E3,2.84574E2,4.0406046E2,1.4526819E2,4.0892227E2,1.0365515E4,5.0434087E3,8.717711E2,2.9343302E1,3.79946E3,1.7327562E2,1.2900237E3,1.0297317E3,4.712818E1,2.3744583E2,2.0974537E1,3.830859E2,1.3311044E2,1.2157752E1,3.8219745E2,2.6724812E1],"tree_param":{"num_deleted":"0","num_feature":"30","num_nodes":"31","size_leaf_vector":"0"}},{"base_weights":[-3.7098743E-2,-8.2554154E-2,1.5142791E-1,-1.2574945E-1,1.6108745E-1,1.709131E-1,-4.25945E-1,-1.00804016E-1,-5.3185725E-1,4.2615017E-1,6.647863E-2,1.9327016E-1,-2.770998E-1,-7.5104743E-1,1.9645813E-1,5.4611087E-2,-1.6291307E-1,-7.4101704E-1,-2.779457E-1,4.9188942E-1,-4.207585E-1,8.35364E-2,-1.2753358E0,1.7900792E-1,1.1826973E0,-6.253446E-1,1.1279058E-1,1.7876105E0,-8.4778714E-1,-5.043951E-1,7.3978794E-1],"categories":[],"categories_nodes":[],"categories_segments":[],"categories_sizes":[],"default_left":[true,true,true,true,true,true,true,true,true,true,true,true,true,true,true,false,false,false,false,false,false,false,false,false,false,false,false,false,false,false,false],"id":28,"left_children":[1,3,5,7,9,11,13,15,17,19,21,23,25,27,29,-1,-1,-1,-1,-1,-1,-1,-1,-1,-1,-1,-1,-1,-1,-1,-1],"loss_changes":[2.0357355E2,2.0145259E2,5.1992653E1,1.6465073E2,7.226347E1,4.477675E1,3.0691305E1,1.4787418E2,4.9749817E1,4.241446E1,4.8759377E1,5.9810272E1,2.8942066E1,2.5918148E1,2.0397377E1,0E0,0E0,0E0,0E0,0E0,0E0,0E0,0E0,0E0,0E0,0E0,0E0,0E0,0E0,0E0,0E0],"parents":[2147483647,0,0,1,1,2,2,3,3,4,4,5,5,6,6,7,7,8,8,9,9,10,10,11,11,12,12,13,13,14,14],"right_children":[2,4,6,8,10,12,14,16,18,20,22,24,26,28,30,-1,-1,-1,-1,-1,-1,-1,-1,-1,-1,-1,-1,-1,-1,-1,-1],"split_conditions":[5E-1,5E-1,5E-1,5E-1,1.7050001E-1,1.860769E0,5E-1,5.495E-1,5E-1,9.8450005E-1,1.9570627E0,1.8503072E0,5E-1,4.1500002E-2,5.1750004E-1,5.461109E-3,-1.6291307E-2,-7.410171E-2,-2.779457E-2,4.918894E-2,-4.207585E-2,8.35364E-3,-1.2753358E-1,1.7900793E-2,1.18269734E-1,-6.253446E-2,1.1279058E-2,1.7876105E-1,-8.477872E-2,-5.0439514E-2,7.39788E-2],"split_indices":[4,22,24,20,12,2,18,10,1,10,2,2,25,7,12,0,0,0,0,0,0,0,0,0,0,0,0,0,0,0,0],"split_type":[0,0,0,0,0,0,0,0,0,0,0,0,0,0,0,0,0,0,0,0,0,0,0,0,0,0,0,0,0,0,0],"sum_hessian":[2.3752979E4,1.9138969E4,4.614009E3,1.6257208E4,2.8817615E3,4.4640596E3,1.499491E2,1.5317564E4,9.3964307E2,7.5710333E2,2.1246582E3,4.252421E3,2.1163889E2,9.836369E1,5.1585403E1,4.373615E3,1.0943949E4,5.1417377E2,4.2546927E2,7.029572E2,5.4146145E1,2.0989136E3,2.5744629E1,4.1931587E3,5.9262035E1,1.1147079E2,1.001681E2,2.969117E0,9.539458E1,2.2558435E1,2.9026968E1],"tree_param":{"num_deleted":"0","num_feature":"30","num_nodes":"31","size_leaf_vector":"0"}},{"base_weights":[-3.356815E-2,-4.2125243E-3,-3.0935022E-1,3.3163916E-2,-2.441485E-1,-1.9440216E-1,-4.8306176E-1,6.5950304E-2,-2.0823883E-1,1.231244E-3,-3.256523E-1,-3.6141634E-2,-3.7557122E-1,-6.8088174E-1,-2.7770224E-1,1.3987623E-1,-4.4323504E-2,-2.645066E-1,1.6129935E-1,1.4605272E-1,-4.354547E-1,-1.3353428E-1,-4.7579783E-1,-6.558769E-1,4.4299677E-2,1.4067203E-1,-4.553344E-1,1.5998179E-1,-7.87636E-1,-5.540732E-1,2.1407919E-2],"categories":[],"categories_nodes":[],"categories_segments":[],"categories_sizes":[],"default_left":[true,true,true,true,true,true,true,true,true,true,true,true,true,true,true,false,false,false,false,false,false,false,false,false,false,false,false,false,false,false,false],"id":29,"left_children":[1,3,5,7,9,11,13,15,17,19,21,23,25,27,29,-1,-1,-1,-1,-1,-1,-1,-1,-1,-1,-1,-1,-1,-1,-1,-1],"loss_changes":[1.9168703E2,1.9192902E2,4.5390396E1,1.465724E2,5.76893E1,3.9337826E1,3.663307E1,1.3291602E2,4.6087967E1,4.5611023E1,6.239656E1,3.660359E1,2.6409843E1,4.1507187E1,3.6915188E1,0E0,0E0,0E0,0E0,0E0,0E0,0E0,0E0,0E0,0E0,0E0,0E0,0E0,0E0,0E0,0E0],"parents":[2147483647,0,0,1,1,2,2,3,3,4,4,5,5,6,6,7,7,8,8,9,9,10,10,11,11,12,12,13,13,14,14],"right_children":[2,4,6,8,10,12,14,16,18,20,22,24,26,28,30,-1,-1,-1,-1,-1,-1,-1,-1,-1,-1,-1,-1,-1,-1,-1,-1],"split_conditions":[5E-1,5E-1,5E-1,5E-1,5E-1,8.5950005E-1,5E-1,4.1750002E-1,5E-1,5.825E-1,8.7950003E-1,1.4867554E0,1.23500004E-1,2.9549998E-1,4.255E-1,1.3987623E-2,-4.4323504E-3,-2.6450662E-2,1.6129935E-2,1.4605272E-2,-4.354547E-2,-1.3353429E-2,-4.7579784E-2,-6.558769E-2,4.4299676E-3,1.4067203E-2,-4.553344E-2,1.599818E-2,-7.87636E-2,-5.5407323E-2,2.1407919E-3],"split_indices":[15,13,11,23,5,10,19,12,22,12,10,2,12,7,12,0,0,0,0,0,0,0,0,0,0,0,0,0,0,0,0],"split_type":[0,0,0,0,0,0,0,0,0,0,0,0,0,0,0,0,0,0,0,0,0,0,0,0,0,0,0,0,0,0,0],"sum_hessian":[2.3676633E4,2.1399752E4,2.2768813E3,1.8516217E4,2.883534E3,1.3714724E3,9.0540906E2,1.6302766E4,2.213452E3,7.192141E2,2.1643198E3,7.3265765E2,6.3881476E2,4.5999078E2,4.4541824E2,9.759724E3,6.543042E3,1.9212037E3,2.9224817E2,5.405973E2,1.7861684E2,9.502814E2,1.2140386E3,8.335113E1,6.493065E2,8.539E1,5.534248E2,5.1764263E1,4.0822653E2,2.3106606E2,2.1435219E2],"tree_param":{"num_deleted":"0","num_feature":"30","num_nodes":"31","size_leaf_vector":"0"}},{"base_weights":[-3.0406326E-2,-8.000049E-2,1.1779369E-1,-1.1951739E-1,1.4736673E-1,2.5317925E-1,-1.3713288E-3,1.1502451E-1,-1.5878233E-1,2.4653992E-1,-4.2705573E-2,3.556155E-1,1.4156601E-1,-9.187974E-2,1.8431848E-1,-3.0461434E-1,1.447589E-1,-1.3556503E-1,-5.8361936E-1,2.0047578E-1,7.2481745E-1,2.6750913E-1,-1.6287708E-1,3.7681162E-1,-2.0223606E-1,1.3254032E-1,2.6602752E0,-3.7622064E-2,-4.378365E-1,5.316296E-1,5.2309167E-2],"categories":[],"categories_nodes":[],"categories_segments":[],"categories_sizes":[],"default_left":[true,true,true,true,true,true,true,true,true,true,true,true,true,true,true,false,false,false,false,false,false,false,false,false,false,false,false,false,false,false,false],"id":30,"left_children":[1,3,5,7,9,11,13,15,17,19,21,23,25,27,29,-1,-1,-1,-1,-1,-1,-1,-1,-1,-1,-1,-1,-1,-1,-1,-1],"loss_changes":[1.7351974E2,1.589479E2,9.550278E1,1.3880318E2,4.938966E1,3.163353E1,5.29474E1,2.7017067E1,1.2725397E2,3.778292E1,3.3558155E1,1.7154602E1,2.9833786E1,3.9740726E1,4.730475E1,0E0,0E0,0E0,0E0,0E0,0E0,0E0,0E0,0E0,0E0,0E0,0E0,0E0,0E0,0E0,0E0],"parents":[2147483647,0,0,1,1,2,2,3,3,4,4,5,5,6,6,7,7,8,8,9,9,10,10,11,11,12,12,13,13,14,14],"right_children":[2,4,6,8,10,12,14,16,18,20,22,24,26,28,30,-1,-1,-1,-1,-1,-1,-1,-1,-1,-1,-1,-1,-1,-1,-1,-1],"split_conditions":[5E-1,5E-1,5E-1,1.505E-1,4.465E-1,3.725E-1,5E-1,4.599659E-1,5E-1,5E-1,5.2750003E-1,1.8745034E0,2.081461E0,5E-1,6.735E-1,-3.0461434E-2,1.44758895E-2,-1.3556503E-2,-5.8361936E-2,2.0047579E-2,7.2481744E-2,2.6750913E-2,-1.6287709E-2,3.7681162E-2,-2.0223606E-2,1.3254032E-2,2.6602754E-1,-3.7622065E-3,-4.378365E-2,5.3162962E-2,5.2309167E-3],"split_indices":[6,22,16,7,12,12,25,2,20,9,10,2,2,23,10,0,0,0,0,0,0,0,0,0,0,0,0,0,0,0,0],"split_type":[0,0,0,0,0,0,0,0,0,0,0,0,0,0,0,0,0,0,0,0,0,0,0,0,0,0,0,0,0,0,0],"sum_hessian":[2.360631E4,1.76877E4,5.9186123E3,1.5069127E4,2.6185718E3,2.7702058E3,3.1484065E3,2.160693E3,1.2908434E4,1.7205508E3,8.980211E2,1.4433469E3,1.3268589E3,2.1170332E3,1.0313733E3,1.423583E2,2.0183348E3,1.2240795E4,6.676391E2,1.5706925E3,1.4985825E2,2.5040118E2,6.4762E2,1.3908256E3,5.2521317E1,1.3231699E3,3.688909E0,1.8309823E3,2.8605096E2,2.832161E2,7.4815717E2],"tree_param":{"num_deleted":"0","num_feature":"30","num_nodes":"31","size_leaf_vector":"0"}},{"base_weights":[-2.7497316E-2,-1.3086055E-3,-2.7750567E-1,3.2246504E-2,-2.1864195E-1,-3.8814175E-1,-1.0132639E-1,6.0992315E-2,-1.8093005E-1,6.1047943E-3,-2.9407427E-1,-6.2333214E-1,-2.6697463E-1,-3.6152903E-2,-6.3397956E-1,1.09122016E-1,-6.807479E-2,-8.842608E-2,-3.7009153E-1,1.0731747E-1,-5.139468E-1,-4.618991E-1,-1.2191318E-1,-1.0727661E0,-5.4119617E-1,-8.161405E-1,-1.7844903E-1,-3.0555063E-1,8.3751045E-2,1.353439E-1,-1.2332236E0],"categories":[],"categories_nodes":[],"categories_segments":[],"categories_sizes":[],"default_left":[true,true,true,true,true,true,true,true,true,true,true,true,true,true,true,false,false,false,false,false,false,false,false,false,false,false,false,false,false,false,false],"id":31,"left_children":[1,3,5,7,9,11,13,15,17,19,21,23,25,27,29,-1,-1,-1,-1,-1,-1,-1,-1,-1,-1,-1,-1,-1,-1,-1,-1],"loss_changes":[1.5391748E2,1.551962E2,4.3408295E1,1.1297932E2,4.8254837E1,3.8842087E1,2.987268E1,1.0092217E2,3.830127E1,3.7753887E1,6.151555E1,1.6572937E1,4.3859245E1,2.4844816E1,4.342032E1,0E0,0E0,0E0,0E0,0E0,0E0,0E0,0E0,0E0,0E0,0E0,0E0,0E0,0E0,0E0,0E0],"parents":[2147483647,0,0,1,1,2,2,3,3,4,4,5,5,6,6,7,7,8,8,9,9,10,10,11,11,12,12,13,13,14,14],"right_children":[2,4,6,8,10,12,14,16,18,20,22,24,26,28,30,-1,-1,-1,-1,-1,-1,-1,-1,-1,-1,-1,-1,-1,-1,-1,-1],"split_conditions":[5E-1,5E-1,5E-1,5E-1,5E-1,1.7589211E0,4.211667E2,9.2649996E-1,5E-1,6.855E-1,5E-1,1.8650001E-1,5E-1,5E-1,5E-1,1.0912201E-2,-6.8074795E-3,-8.842609E-3,-3.7009154E-2,1.0731747E-2,-5.139468E-2,-4.618991E-2,-1.2191318E-2,-1.0727661E-1,-5.4119617E-2,-8.161405E-2,-1.7844904E-2,-3.0555064E-2,8.3751045E-3,1.3534389E-2,-1.2332236E-1],"split_indices":[15,13,1,23,5,2,3,10,11,12,0,12,21,19,18,0,0,0,0,0,0,0,0,0,0,0,0,0,0,0,0],"split_type":[0,0,0,0,0,0,0,0,0,0,0,0,0,0,0,0,0,0,0,0,0,0,0,0,0,0,0,0,0,0,0],"sum_hessian":[2.3507252E4,2.1279229E4,2.2280225E3,1.8433973E4,2.8452554E3,1.3678468E3,8.601757E2,1.6244232E4,2.1897412E3,7.1521826E2,2.130037E3,4.636801E2,9.041666E2,7.673531E2,9.282264E1,1.1832132E4,4.4121E3,1.4715765E3,7.181647E2,5.993635E2,1.1585476E2,1.0777499E3,1.0522874E3,6.9782326E1,3.938978E2,1.2437718E2,7.797895E2,2.3586597E2,5.314871E2,4.0982494E1,5.1840145E1],"tree_param":{"num_deleted":"0","num_feature":"30","num_nodes":"31","size_leaf_vector":"0"}},{"base_weights":[-2.4936516E-2,-8.551384E-2,7.382149E-2,-3.9081788E-1,-5.1879536E-2,1.9281004E-1,-3.6599625E-2,-6.902669E-1,-2.5385806E-1,-9.136806E-2,2.2446682E-1,5.9389234E-1,1.7515275E-1,1.515821E-1,-9.001925E-2,2.1230242E0,-7.022273E-1,-2.993608E-1,2.3269877E-1,-1.1253677E-1,5.4374397E-1,-6.571465E-2,3.005201E-1,6.584777E-1,-7.106555E-1,2.4359547E-1,5.4191887E-2,-7.374405E-1,1.959746E-1,-1.07597895E-1,5.600642E-1],"categories":[],"categories_nodes":[],"categories_segments":[],"categories_sizes":[],"default_left":[true,true,true,true,true,true,true,true,true,true,true,true,true,true,true,false,false,false,false,false,false,false,false,false,false,false,false,false,false,false,false],"id":32,"left_children":[1,3,5,7,9,11,13,15,17,19,21,23,25,27,29,-1,-1,-1,-1,-1,-1,-1,-1,-1,-1,-1,-1,-1,-1,-1,-1],"loss_changes":[1.4020958E2,1.4914398E2,1.1708018E2,5.893756E1,1.428193E2,3.0270813E1,4.6481285E1,1.669165E1,2.2000744E1,1.540061E2,3.6133713E1,1.5670795E1,3.4009422E1,4.049553E1,4.121129E1,0E0,0E0,0E0,0E0,0E0,0E0,0E0,0E0,0E0,0E0,0E0,0E0,0E0,0E0,0E0,0E0],"parents":[2147483647,0,0,1,1,2,2,3,3,4,4,5,5,6,6,7,7,8,8,9,9,10,10,11,11,12,12,13,13,14,14],"right_children":[2,4,6,8,10,12,14,16,18,20,22,24,26,28,30,-1,-1,-1,-1,-1,-1,-1,-1,-1,-1,-1,-1,-1,-1,-1,-1],"split_conditions":[5E-1,5E-1,5E-1,4.26E2,5E-1,4.25E-2,2.0050001E-1,2.7595E2,9.405E-1,5E-1,5E-1,6.9850004E-1,5E-1,4.5752013E-1,1.922E3,2.1230243E-1,-7.022273E-2,-2.993608E-2,2.3269877E-2,-1.1253677E-2,5.4374397E-2,-6.571465E-3,3.005201E-2,6.584778E-2,-7.106555E-2,2.4359547E-2,5.4191886E-3,-7.374405E-2,1.9597461E-2,-1.07597895E-2,5.600642E-2],"split_indices":[1,21,18,3,18,7,12,3,7,26,5,10,29,2,3,0,0,0,0,0,0,0,0,0,0,0,0,0,0,0,0],"split_type":[0,0,0,0,0,0,0,0,0,0,0,0,0,0,0,0,0,0,0,0,0,0,0,0,0,0,0,0,0,0,0],"sum_hessian":[2.343458E4,1.4525126E4,8.909455E3,1.4403367E3,1.3084789E4,4.288004E3,4.6214507E3,4.507584E2,9.8957825E2,1.1449396E4,1.6353926E3,1.7943915E2,4.108565E3,1.0214264E3,3.6000247E3,1.1610233E0,4.4959735E2,9.0529944E2,8.4278786E1,1.1080886E4,3.6851068E2,3.3963824E2,1.2957543E3,1.7144644E2,7.992699E0,2.62325E3,1.4853148E3,4.783576E1,9.7359064E2,3.5060532E3,9.397131E1],"tree_param":{"num_deleted":"0","num_feature":"30","num_nodes":"31","size_leaf_vector":"0"}},{"base_weights":[-2.256802E-2,-3.0855706E-2,6.7702794E-1,8.4128395E-2,-8.509797E-2,6.118744E-1,1.5023482E0,3.5034418E-2,3.1717405E-1,-1.4729555E-1,3.6371805E-2,-1.3427521E-1,6.848099E-1,2.0847666E0,-2.0762022E-1,-6.396058E-1,4.956779E-2,3.627909E-1,-1.6385794E-1,4.6275505E-3,-2.0830567E-1,2.905918E-1,-8.619186E-2,-7.865982E-1,7.148241E-1,1.4775778E0,5.643715E-1,5.2886075E-1,2.25763E0,-1.1066972E0,1.4984713E0],"categories":[],"categories_nodes":[],"categories_segments":[],"categories_sizes":[],"default_left":[true,true,true,true,true,true,true,true,true,true,true,true,true,true,true,false,false,false,false,false,false,false,false,false,false,false,false,false,false,false,false],"id":33,"left_children":[1,3,5,7,9,11,13,15,17,19,21,23,25,27,29,-1,-1,-1,-1,-1,-1,-1,-1,-1,-1,-1,-1,-1,-1,-1,-1],"loss_changes":[1.352966E2,1.438268E2,1.3771378E1,8.455788E1,1.1838251E2,1.3963676E1,1.9656155E1,5.9905594E1,2.8279846E1,9.6050735E1,1.6537529E2,1.3597141E1,2.1352135E1,2.7028847E0,1.0575651E1,0E0,0E0,0E0,0E0,0E0,0E0,0E0,0E0,0E0,0E0,0E0,0E0,0E0,0E0,0E0,0E0],"parents":[2147483647,0,0,1,1,2,2,3,3,4,4,5,5,6,6,7,7,8,8,9,9,10,10,11,11,12,12,13,13,14,14],"right_children":[2,4,6,8,10,12,14,16,18,20,22,24,26,28,30,-1,-1,-1,-1,-1,-1,-1,-1,-1,-1,-1,-1,-1,-1,-1,-1],"split_conditions":[5E-1,2.245E-1,1.8360789E0,5E-1,5E-1,3.105E-1,7.22E-1,3.7457776E2,9.8249996E-1,3.855E-1,5E-1,5E-1,3.985E-1,2.345E-1,9.9450004E-1,-6.396058E-2,4.956779E-3,3.6279093E-2,-1.6385794E-2,4.6275507E-4,-2.0830568E-2,2.9059181E-2,-8.6191865E-3,-7.8659825E-2,7.148241E-2,1.4775778E-1,5.6437153E-2,5.2886076E-2,2.2576301E-1,-1.10669725E-1,1.4984713E-1],"split_indices":[28,12,2,22,25,7,12,3,10,7,17,26,7,12,12,0,0,0,0,0,0,0,0,0,0,0,0,0,0,0,0],"split_type":[0,0,0,0,0,0,0,0,0,0,0,0,0,0,0,0,0,0,0,0,0,0,0,0,0,0,0,0,0,0,0],"sum_hessian":[2.3330312E4,2.3058113E4,2.7219955E2,7.3906587E3,1.5667454E4,2.5389743E2,1.8302122E1,6.1055903E3,1.2850685E3,1.0361646E4,5.3058076E3,2.2533432E1,2.31364E2,1.3488671E1,4.8134513E0,1.27848404E2,5.977742E3,1.1739839E3,1.1108453E2,2.9691077E3,7.392539E3,1.7254762E3,3.5803315E3,1.278496E1,9.748473E0,2.9027365E1,2.0233662E2,1.7546718E0,1.1733999E1,3.3823466E0,1.4311047E0],"tree_param":{"num_deleted":"0","num_feature":"30","num_nodes":"31","size_leaf_vector":"0"}},{"base_weights":[-2.0378869E-2,-3.5926192E-3,-3.4523103E-1,-4.568542E-2,1.2495221E-1,-1.0209182E-1,-4.5536903E-1,-6.50926E-2,3.1417704E-1,2.4250087E-1,1.861655E-2,-2.8406876E-1,2.8249276E-1,7.514983E-1,-4.842796E-1,-9.0232305E-2,2.492428E-1,4.195352E-1,-3.6844784E-1,5.787831E-1,2.1586381E-1,2.5777298E-1,-4.4240687E-2,-4.788331E-1,2.1242449E-1,4.467146E-1,-8.3560914E-1,-1.0020683E0,1.9769789E0,-5.667761E-1,-7.80521E-2],"categories":[],"categories_nodes":[],"categories_segments":[],"categories_sizes":[],"default_left":[true,true,true,true,true,true,true,true,true,true,true,true,true,true,true,false,false,false,false,false,false,false,false,false,false,false,false,false,false,false,false],"id":34,"left_children":[1,3,5,7,9,11,13,15,17,19,21,23,25,27,29,-1,-1,-1,-1,-1,-1,-1,-1,-1,-1,-1,-1,-1,-1,-1,-1],"loss_changes":[1.2686626E2,1.1971072E2,3.056511E1,1.1641904E2,6.8213776E1,2.5112022E1,2.7804306E1,1.249947E2,6.1502632E1,2.3093643E1,4.3103703E1,2.3627388E1,2.1559637E1,4.2361572E1,2.57155E1,0E0,0E0,0E0,0E0,0E0,0E0,0E0,0E0,0E0,0E0,0E0,0E0,0E0,0E0,0E0,0E0],"parents":[2147483647,0,0,1,1,2,2,3,3,4,4,5,5,6,6,7,7,8,8,9,9,10,10,11,11,12,12,13,13,14,14],"right_children":[2,4,6,8,10,12,14,16,18,20,22,24,26,28,30,-1,-1,-1,-1,-1,-1,-1,-1,-1,-1,-1,-1,-1,-1,-1,-1],"split_conditions":[5E-1,5E-1,4.995E-1,5E-1,5E-1,1.786352E0,3.2156818E2,5E-1,9.655E-1,5E-1,5E-1,1.5565E3,5E-1,5E-1,1.499E3,-9.0232305E-3,2.492428E-2,4.195352E-2,-3.6844786E-2,5.787831E-2,2.158638E-2,2.5777299E-2,-4.4240686E-3,-4.7883313E-2,2.1242449E-2,4.467146E-2,-8.3560914E-2,-1.0020683E-1,1.976979E-1,-5.667761E-2,-7.8052105E-3],"split_indices":[20,6,7,27,16,2,3,9,10,0,18,3,23,1,3,0,0,0,0,0,0,0,0,0,0,0,0,0,0,0,0],"split_type":[0,0,0,0,0,0,0,0,0,0,0,0,0,0,0,0,0,0,0,0,0,0,0,0,0,0,0,0,0,0,0],"sum_hessian":[2.3264424E4,2.2122299E4,1.1421256E3,1.6665666E4,5.4566313E3,3.5667078E2,7.8545483E2,1.5813664E4,8.5200287E2,2.5910627E3,2.8655686E3,2.4228719E2,1.14383575E2,1.7790705E1,7.676641E2,1.4643249E4,1.1704149E3,7.3841876E2,1.1358414E2,1.8865393E2,2.4024087E3,5.9575714E2,2.2698113E3,1.7404744E2,6.823975E1,1.0025852E2,1.4125056E1,7.3934965E0,1.0397208E1,6.37754E2,1.2991006E2],"tree_param":{"num_deleted":"0","num_feature":"30","num_nodes":"31","size_leaf_vector":"0"}},{"base_weights":[-1.8431276E-2,-5.4491077E-2,1.2973163E-1,-8.799681E-2,1.3194421E-1,1.4658846E-1,-3.7704334E-1,-1.4855455E-1,2.0828534E-2,1.4431041E-1,-1.1244942E0,1.6510616E-1,-2.3172244E-1,-6.879111E-1,1.942261E-1,-6.072421E-2,-2.905637E-1,-2.6580763E-1,1.6453964E-1,3.2922697E-1,8.179863E-2,-1.2606187E0,8.8051903E-1,1.5100993E-1,9.9040776E-1,-6.608187E-1,8.026406E-2,1.5707701E0,-7.815021E-1,-4.52927E-1,6.9959736E-1],"categories":[],"categories_nodes":[],"categories_segments":[],"categories_sizes":[],"default_left":[true,true,true,true,true,true,true,true,true,true,true,true,true,true,true,false,false,false,false,false,false,false,false,false,false,false,false,false,false,false,false],"id":35,"left_children":[1,3,5,7,9,11,13,15,17,19,21,23,25,27,29,-1,-1,-1,-1,-1,-1,-1,-1,-1,-1,-1,-1,-1,-1,-1,-1],"loss_changes":[1.2396597E2,1.1657841E2,3.8853737E1,1.0425061E2,4.43376E1,3.083606E1,2.6148432E1,1.2674524E2,2.3304285E2,3.252843E1,8.704094E0,4.8615143E1,2.7572397E1,2.1327965E1,1.7455362E1,0E0,0E0,0E0,0E0,0E0,0E0,0E0,0E0,0E0,0E0,0E0,0E0,0E0,0E0,0E0,0E0],"parents":[2147483647,0,0,1,1,2,2,3,3,4,4,5,5,6,6,7,7,8,8,9,9,10,10,11,11,12,12,13,13,14,14],"right_children":[2,4,6,8,10,12,14,16,18,20,22,24,26,28,30,-1,-1,-1,-1,-1,-1,-1,-1,-1,-1,-1,-1,-1,-1,-1,-1],"split_conditions":[5E-1,5E-1,5E-1,5E-1,1.9570627E0,1.860769E0,5E-1,5E-1,5E-1,1.6350001E-1,2.4121308E0,1.8499416E0,1.8789339E0,4.1500002E-2,5.1750004E-1,-6.072421E-3,-2.905637E-2,-2.6580764E-2,1.6453965E-2,3.2922696E-2,8.179863E-3,-1.2606187E-1,8.805191E-2,1.5100993E-2,9.904078E-2,-6.6081874E-2,8.026406E-3,1.5707701E-1,-7.815021E-2,-4.52927E-2,6.995974E-2],"split_indices":[4,22,24,14,2,2,18,29,5,12,2,2,2,7,12,0,0,0,0,0,0,0,0,0,0,0,0,0,0,0,0],"split_type":[0,0,0,0,0,0,0,0,0,0,0,0,0,0,0,0,0,0,0,0,0,0,0,0,0,0,0,0,0,0,0],"sum_hessian":[2.320044E4,1.8659688E4,4.5407515E3,1.5817525E4,2.8421626E3,4.3952627E3,1.4548872E2,1.0162219E4,5.655307E3,2.8153384E3,2.6824198E1,4.1906987E3,2.0456432E2,9.408584E1,5.1402878E1,6.279734E3,3.882485E3,1.8882618E3,3.7670452E3,7.1020605E2,2.1051323E3,2.5466494E1,1.3577054E0,4.1214863E3,6.92124E1,8.564829E1,1.1891602E2,3.1154602E0,9.097038E1,2.258519E1,2.8817688E1],"tree_param":{"num_deleted":"0","num_feature":"30","num_nodes":"31","size_leaf_vector":"0"}},{"base_weights":[-1.6685668E-2,-5.969524E-2,9.7096086E-2,-6.39463E-3,-1.712333E-1,4.01468E-2,2.4838851E-1,6.7290336E-2,-1.3882546E-1,2.7425689E-1,-2.0724985E-1,2.0668572E-1,-2.472493E-2,8.043615E-1,2.3024417E-1,1.255266E-1,-2.4576463E-2,-8.580859E-2,-4.1201487E-1,-1.638615E-1,4.0191454E-1,-3.293533E-1,-1.19654424E-1,2.179197E-1,-1.7621342E0,-4.305527E-2,7.309796E-1,5.5475324E-1,2.004642E0,1.19480684E-1,3.208124E-1],"categories":[],"categories_nodes":[],"categories_segments":[],"categories_sizes":[],"default_left":[true,true,true,true,true,true,true,true,true,true,true,true,true,true,true,false,false,false,false,false,false,false,false,false,false,false,false,false,false,false,false],"id":36,"left_children":[1,3,5,7,9,11,13,15,17,19,21,23,25,27,29,-1,-1,-1,-1,-1,-1,-1,-1,-1,-1,-1,-1,-1,-1,-1,-1],"loss_changes":[1.1319496E2,9.978937E1,5.4659107E1,1.10851616E2,8.714194E1,4.9821167E1,1.7317436E1,3.9051865E1,5.8783684E1,2.2795986E1,5.367592E1,2.8976082E1,4.601157E1,1.5195999E1,1.6830933E1,0E0,0E0,0E0,0E0,0E0,0E0,0E0,0E0,0E0,0E0,0E0,0E0,0E0,0E0,0E0,0E0],"parents":[2147483647,0,0,1,1,2,2,3,3,4,4,5,5,6,6,7,7,8,8,9,9,10,10,11,11,12,12,13,13,14,14],"right_children":[2,4,6,8,10,12,14,16,18,20,22,24,26,28,30,-1,-1,-1,-1,-1,-1,-1,-1,-1,-1,-1,-1,-1,-1,-1,-1],"split_conditions":[5E-1,5E-1,1.47375E3,9.1349995E-1,1.035E-1,1.695E-1,1.75E-2,5E-1,5E-1,5E-1,5E-1,1.4575E3,5E-1,5E-1,5E-1,1.2552661E-2,-2.4576464E-3,-8.580859E-3,-4.1201487E-2,-1.638615E-2,4.0191453E-2,-3.2935333E-2,-1.1965442E-2,2.179197E-2,-1.7621343E-1,-4.305527E-3,7.309797E-2,5.5475324E-2,2.004642E-1,1.1948069E-2,3.2081243E-2],"split_indices":[8,11,3,10,7,12,12,29,13,5,19,3,28,13,0,0,0,0,0,0,0,0,0,0,0,0,0,0,0,0,0],"split_type":[0,0,0,0,0,0,0,0,0,0,0,0,0,0,0,0,0,0,0,0,0,0,0,0,0,0,0,0,0,0,0],"sum_hessian":[2.3128547E4,1.678448E4,6.3440674E3,1.1357931E4,5.4265483E3,4.6100312E3,1.7340363E3,7.2978657E3,4.0600654E3,4.054092E2,5.021139E3,1.2917249E3,3.3183064E3,5.343287E1,1.6806034E3,4.4662505E3,2.8316152E3,3.4013015E3,6.58764E2,9.140964E1,3.1399957E2,2.0962773E3,2.9248618E3,1.2852804E3,6.444428E0,3.2406445E3,7.766193E1,4.5444496E1,7.9883733E0,7.570557E2,9.2354767E2],"tree_param":{"num_deleted":"0","num_feature":"30","num_nodes":"31","size_leaf_vector":"0"}},{"base_weights":[-1.5090534E-2,5.198908E-4,-3.047606E-1,2.6669893E-2,-1.755914E-1,-5.862345E-1,-2.1776201E-1,5.5375528E-2,-1.799882E-1,2.327862E-1,-2.1597743E-1,7.1906495E-1,-6.777545E-1,4.6761876E-1,-2.6060817E-1,4.8037417E-2,6.4083195E-1,-3.1989473E-1,-6.3217804E-2,3.0634156E-1,-1.2821397E0,-2.3411714E-1,6.5202236E-1,-1.2593179E0,1.2300596E0,-7.0948756E-1,1.2616996E0,7.697109E-1,-8.640174E-1,-6.275095E-1,-1.3181655E-1],"categories":[],"categories_nodes":[],"categories_segments":[],"categories_sizes":[],"default_left":[true,true,true,true,true,true,true,true,true,true,true,true,true,true,true,false,false,false,false,false,false,false,false,false,false,false,false,false,false,false,false],"id":37,"left_children":[1,3,5,7,9,11,13,15,17,19,21,23,25,27,29,-1,-1,-1,-1,-1,-1,-1,-1,-1,-1,-1,-1,-1,-1,-1,-1],"loss_changes":[1.0428243E2,1.00784935E2,2.8749779E1,1.1304948E2,4.671501E1,3.3678246E1,2.6622208E1,7.185154E1,3.795086E1,2.882005E1,4.0701378E1,2.044284E1,1.690599E1,2.2167854E1,4.0081394E1,0E0,0E0,0E0,0E0,0E0,0E0,0E0,0E0,0E0,0E0,0E0,0E0,0E0,0E0,0E0,0E0],"parents":[2147483647,0,0,1,1,2,2,3,3,4,4,5,5,6,6,7,7,8,8,9,9,10,10,11,11,12,12,13,13,14,14],"right_children":[2,4,6,8,10,12,14,16,18,20,22,24,26,28,30,-1,-1,-1,-1,-1,-1,-1,-1,-1,-1,-1,-1,-1,-1,-1,-1],"split_conditions":[5E-1,5E-1,5.0453997E-1,5E-1,6.75E-2,7.15E-2,1.165E-1,5E-1,1.06925E3,9.885E-1,2.555E3,3.4500003E-2,9.64E-1,7.3300004E-1,4.075E-1,4.803742E-3,6.4083196E-2,-3.1989474E-2,-6.3217804E-3,3.0634155E-2,-1.2821397E-1,-2.3411714E-2,6.5202236E-2,-1.2593178E-1,1.23005964E-1,-7.094876E-2,1.2616996E-1,7.697109E-2,-8.6401746E-2,-6.275095E-2,-1.3181656E-2],"split_indices":[24,13,2,23,12,12,7,28,3,10,3,12,7,10,7,0,0,0,0,0,0,0,0,0,0,0,0,0,0,0,0],"split_type":[0,0,0,0,0,0,0,0,0,0,0,0,0,0,0,0,0,0,0,0,0,0,0,0,0,0,0,0,0,0,0],"sum_hessian":[2.3060742E4,2.1882486E4,1.178257E3,1.9054078E4,2.828409E3,2.7683875E2,9.014182E2,1.673083E4,2.323247E3,2.5411115E2,2.5742976E3,1.7689285E1,2.5914944E2,5.245277E1,8.489654E2,1.6524791E4,2.060396E2,1.0561267E3,1.2671204E3,2.4310526E2,1.1005894E1,2.522316E3,5.1981785E1,3.3304741E0,1.435881E1,2.5560152E2,3.5479293E0,4.30977E1,9.355071E0,2.1957323E2,6.293922E2],"tree_param":{"num_deleted":"0","num_feature":"30","num_nodes":"31","size_leaf_vector":"0"}},{"base_weights":[-1.3650131E-2,-6.6034205E-2,7.127593E-2,-1.0042125E-1,1.7182589E-1,1.595399E-1,-3.6778875E-2,-1.1978582E-1,4.709341E-1,2.0582835E-1,-4.2953306E-1,-1.2517719E-2,2.0394836E-1,-8.1701785E-2,1.7765412E-1,-1.6189946E-1,1.20609544E-1,5.7679075E-1,-7.718743E-1,2.608241E-1,-9.457771E-2,1.09363526E-1,-6.182245E-1,-1.4164999E-1,1.6013822E-1,2.213466E-1,-4.2154053E-1,-9.4732985E-2,7.1930534E-1,2.6560417E-1,-1.764805E-1],"categories":[],"categories_nodes":[],"categories_segments":[],"categories_sizes":[],"default_left":[true,true,true,true,true,true,true,true,true,true,true,true,true,true,true,false,false,false,false,false,false,false,false,false,false,false,false,false,false,false,false],"id":38,"left_children":[1,3,5,7,9,11,13,15,17,19,21,23,25,27,29,-1,-1,-1,-1,-1,-1,-1,-1,-1,-1,-1,-1,-1,-1,-1,-1],"loss_changes":[1.0242187E2,1.16484344E2,8.377432E1,1.37708E2,3.687179E1,3.6942123E1,3.806178E1,1.21853775E2,5.4127563E1,2.8165092E1,9.889919E0,2.2156517E1,4.1911697E1,3.416161E1,2.1364561E1,0E0,0E0,0E0,0E0,0E0,0E0,0E0,0E0,0E0,0E0,0E0,0E0,0E0,0E0,0E0,0E0],"parents":[2147483647,0,0,1,1,2,2,3,3,4,4,5,5,6,6,7,7,8,8,9,9,10,10,11,11,12,12,13,13,14,14],"right_children":[2,4,6,8,10,12,14,16,18,20,22,24,26,28,30,-1,-1,-1,-1,-1,-1,-1,-1,-1,-1,-1,-1,-1,-1,-1,-1],"split_conditions":[5E-1,5E-1,5E-1,5E-1,5E-1,4.8815972E-1,5E-1,5E-1,5E-1,7.085E-1,3.905E2,5E-1,9.145E-1,5E-1,5E-1,-1.6189946E-2,1.2060954E-2,5.7679076E-2,-7.7187434E-2,2.6082411E-2,-9.457771E-3,1.0936352E-2,-6.182245E-2,-1.4164999E-2,1.6013822E-2,2.213466E-2,-4.2154055E-2,-9.473299E-3,7.1930535E-2,2.6560416E-2,-1.764805E-2],"split_indices":[1,18,26,26,20,2,4,22,15,12,3,6,12,28,11,0,0,0,0,0,0,0,0,0,0,0,0,0,0,0,0],"split_type":[0,0,0,0,0,0,0,0,0,0,0,0,0,0,0,0,0,0,0,0,0,0,0,0,0,0,0,0,0,0,0],"sum_hessian":[2.3020441E4,1.4238237E4,8.782204E3,1.2440336E4,1.7979015E3,4.8335054E3,3.9486987E3,1.203329E4,4.07046E2,1.7023062E3,9.55953E1,9.91751E2,3.8417544E3,3.2652583E3,6.834404E2,1.0239765E4,1.7935259E3,3.755908E2,3.145519E1,1.4389984E3,2.6330774E2,2.4900547E1,7.069475E1,5.6749304E2,4.2425797E2,3.7384148E3,1.0333947E2,3.2138552E3,5.140292E1,5.476744E2,1.3576604E2],"tree_param":{"num_deleted":"0","num_feature":"30","num_nodes":"31","size_leaf_vector":"0"}},{"base_weights":[-1.23533355E-2,8.130125E-3,-2.1408051E-1,-4.315575E-2,1.0480015E-1,-3.82406E-1,-1.2922981E-1,2.5251625E-2,-1.6025402E-1,-1.16160735E-1,1.9377553E-1,-5.424201E-1,-1.4878996E-1,-5.298272E-2,-5.338458E-1,5.9297822E-2,-1.9232473E-1,6.931482E-2,-2.1399036E-1,5.2633536E-1,-1.5228097E-1,1.4482872E-1,3.4128508E-1,-1.0111136E0,-4.5600376E-1,2.2651742E-1,-2.646087E-1,7.011602E-1,-9.298388E-2,-3.2978582E-1,-9.132918E-1],"categories":[],"categories_nodes":[],"categories_segments":[],"categories_sizes":[],"default_left":[true,true,true,true,true,true,true,true,true,true,true,true,true,true,true,false,false,false,false,false,false,false,false,false,false,false,false,false,false,false,false],"id":39,"left_children":[1,3,5,7,9,11,13,15,17,19,21,23,25,27,29,-1,-1,-1,-1,-1,-1,-1,-1,-1,-1,-1,-1,-1,-1,-1,-1],"loss_changes":[9.476811E1,1.0323211E2,3.0145775E1,1.0898277E2,1.4191995E2,2.6386803E1,4.3381966E1,6.3633167E1,6.190576E1,4.8179466E1,3.7104828E1,1.6543297E1,1.2630722E1,3.581559E1,1.6965977E1,0E0,0E0,0E0,0E0,0E0,0E0,0E0,0E0,0E0,0E0,0E0,0E0,0E0,0E0,0E0,0E0],"parents":[2147483647,0,0,1,1,2,2,3,3,4,4,5,5,6,6,7,7,8,8,9,9,10,10,11,11,12,12,13,13,14,14],"right_children":[2,4,6,8,10,12,14,16,18,20,22,24,26,28,30,-1,-1,-1,-1,-1,-1,-1,-1,-1,-1,-1,-1,-1,-1,-1,-1],"split_conditions":[5E-1,5E-1,1.755614E0,5E-1,5E-1,5E-1,5E-1,5E-1,5E-1,3.15E-2,5E-1,1.8650001E-1,2.495E-1,1.776962E0,5E-1,5.9297825E-3,-1.9232472E-2,6.9314823E-3,-2.1399036E-2,5.2633535E-2,-1.5228097E-2,1.4482873E-2,3.412851E-2,-1.0111137E-1,-4.5600377E-2,2.2651743E-2,-2.6460871E-2,7.011602E-2,-9.298388E-3,-3.2978583E-2,-9.132918E-2],"split_indices":[15,14,2,29,5,1,23,13,5,7,25,12,12,2,17,0,0,0,0,0,0,0,0,0,0,0,0,0,0,0,0],"split_type":[0,0,0,0,0,0,0,0,0,0,0,0,0,0,0,0,0,0,0,0,0,0,0,0,0,0,0,0,0,0,0],"sum_hessian":[2.2933355E4,2.082022E4,2.113134E3,1.3603681E4,7.2165405E3,7.0703076E2,1.4061033E3,8.587659E3,5.0160215E3,2.0716108E3,5.1449297E3,4.1883206E2,2.8819873E2,1.184099E3,2.2200433E2,7.4263213E3,1.1613381E3,9.513667E2,4.0646545E3,1.09541824E2,1.962069E3,3.864566E3,1.2803638E3,6.3535595E1,3.5529645E2,6.773844E1,2.2046028E2,5.88107E1,1.1252882E3,1.4558186E2,7.642246E1],"tree_param":{"num_deleted":"0","num_feature":"30","num_nodes":"31","size_leaf_vector":"0"}},{"base_weights":[-1.1198249E-2,2.9026354E-3,-2.908829E-1,-3.244862E-2,1.1085105E-1,6.987917E-1,-3.1483725E-1,-4.993282E-2,2.872137E-1,-7.496424E-2,1.5800673E-1,-1.135933E0,1.1372277E0,-3.8914728E-1,4.904286E-3,-7.200381E-2,2.225566E-1,7.2038025E-1,1.4696659E-1,-1.0051795E0,-2.9159138E-2,6.0685855E-1,1.283829E-1,-3.6362356E-1,1.715284E0,-8.366724E-1,-3.0428287E-1,1.5920554E-1,-5.962723E-1],"categories":[],"categories_nodes":[],"categories_segments":[],"categories_sizes":[],"default_left":[true,true,true,true,true,true,true,true,true,true,true,false,true,true,true,false,false,false,false,false,false,false,false,false,false,false,false,false,false],"id":40,"left_children":[1,3,5,7,9,11,13,15,17,19,21,-1,23,25,27,-1,-1,-1,-1,-1,-1,-1,-1,-1,-1,-1,-1,-1,-1],"loss_changes":[9.01995E1,8.309654E1,2.6244507E1,9.169377E1,4.7081E1,2.2410015E1,2.548452E1,9.355719E1,5.1581696E1,4.632833E1,5.6896194E1,0E0,1.9440765E1,3.279706E1,1.8947863E1,0E0,0E0,0E0,0E0,0E0,0E0,0E0,0E0,0E0,0E0,0E0,0E0,0E0,0E0],"parents":[2147483647,0,0,1,1,2,2,3,3,4,4,5,5,6,6,7,7,8,8,9,9,10,10,12,12,13,13,14,14],"right_children":[2,4,6,8,10,12,14,16,18,20,22,-1,24,26,28,-1,-1,-1,-1,-1,-1,-1,-1,-1,-1,-1,-1,-1,-1],"split_conditions":[5E-1,5E-1,3.15E-2,5E-1,5E-1,4.13E2,1.5355E3,5E-1,5E-1,6.25E-2,5E-1,-1.135933E-1,5.263021E-1,5.521107E-1,9.625E-1,-7.2003813E-3,2.2255661E-2,7.2038025E-2,1.46966595E-2,-1.0051795E-1,-2.915914E-3,6.0685854E-2,1.2838291E-2,-3.6362357E-2,1.715284E-1,-8.366724E-2,-3.0428289E-2,1.5920555E-2,-5.962723E-2],"split_indices":[20,6,10,27,5,3,3,9,5,10,0,0,2,2,10,0,0,0,0,0,0,0,0,0,0,0,0,0,0],"split_type":[0,0,0,0,0,0,0,0,0,0,0,0,0,0,0,0,0,0,0,0,0,0,0,0,0,0,0,0,0],"sum_hessian":[2.2869998E4,2.1773244E4,1.0967539E3,1.640243E4,5.370815E3,2.5253052E1,1.0715009E3,1.555261E4,8.498193E2,1.0869878E3,4.283827E3,4.5638433E0,2.0689209E1,8.692617E2,2.0223917E2,1.4387956E4,1.1646545E3,2.0683948E2,6.429798E2,5.0029907E1,1.0369579E3,2.6401782E2,4.0198093E3,5.8559413E0,1.4833267E1,1.3715065E2,7.321111E2,1.615182E2,4.0720966E1],"tree_param":{"num_deleted":"0","num_feature":"30","num_nodes":"29","size_leaf_vector":"0"}},{"base_weights":[-1.0135733E-2,-5.616752E-2,6.989159E-2,-2.466091E-2,-3.9595157E-1,1.0269242E-1,-9.030753E-2,-7.599813E-2,9.188708E-2,-4.9374303E-1,-1.0306732E-1,9.4635315E-2,6.0949796E-1,-1.0694478E-1,1.0371535E0,-9.908528E-2,2.6016182E-1,2.9707694E-1,-1.0653689E-2,-2.5139162E-1,-5.994745E-1,-1.8031042E0,-5.7213522E-2,1.6878869E-1,3.76859E-2,8.389482E-1,1.8335922E-1,-6.894305E-1,-8.2675576E-2,-1.016315E0,1.3231043E0],"categories":[],"categories_nodes":[],"categories_segments":[],"categories_sizes":[],"default_left":[true,true,true,true,true,true,true,true,true,true,true,true,true,true,true,false,false,false,false,false,false,false,false,false,false,false,false,false,false,false,false],"id":41,"left_children":[1,3,5,7,9,11,13,15,17,19,21,23,25,27,29,-1,-1,-1,-1,-1,-1,-1,-1,-1,-1,-1,-1,-1,-1,-1,-1],"loss_changes":[8.407522E1,1.5509921E2,4.380214E1,7.934717E1,3.516133E1,2.8191826E1,2.6689522E1,7.147389E1,8.532829E1,2.345961E1,2.3984497E1,2.8756783E1,1.0413849E1,1.9694954E1,1.3498501E1,0E0,0E0,0E0,0E0,0E0,0E0,0E0,0E0,0E0,0E0,0E0,0E0,0E0,0E0,0E0,0E0],"parents":[2147483647,0,0,1,1,2,2,3,3,4,4,5,5,6,6,7,7,8,8,9,9,10,10,11,11,12,12,13,13,14,14],"right_children":[2,4,6,8,10,12,14,16,18,20,22,24,26,28,30,-1,-1,-1,-1,-1,-1,-1,-1,-1,-1,-1,-1,-1,-1,-1,-1],"split_conditions":[1.3675E3,1.3561667E3,9.6650004E-1,5E-1,4.8289806E-1,5E-1,9.745E-1,5E-1,5E-1,6.8050003E-1,1.35875E3,2.545E-1,7.96E-1,2.1149999E-1,4.8532987E-1,-9.908528E-3,2.6016181E-2,2.9707694E-2,-1.0653689E-3,-2.5139162E-2,-5.994745E-2,-1.8031041E-1,-5.7213525E-3,1.687887E-2,3.76859E-3,8.389482E-2,1.8335922E-2,-6.8943046E-2,-8.267558E-3,-1.016315E-1,1.3231044E-1],"split_indices":[3,3,10,25,2,28,7,9,17,10,3,12,12,7,2,0,0,0,0,0,0,0,0,0,0,0,0,0,0,0,0],"split_type":[0,0,0,0,0,0,0,0,0,0,0,0,0,0,0,0,0,0,0,0,0,0,0,0,0,0,0,0,0,0,0],"sum_hessian":[2.2820889E4,1.4487795E4,8.333095E3,1.3259386E4,1.2284092E3,6.917162E3,1.4159326E3,9.205071E3,4.0543142E3,9.204075E2,3.0800174E2,6.8100835E3,1.070787E2,1.3962344E3,1.9698225E1,8.614164E3,5.9090765E2,1.3503302E3,2.703984E3,2.8060318E2,6.398043E2,7.0828037E0,3.009189E2,2.9573623E3,3.8527212E3,6.897244E1,3.810625E1,5.4750828E1,1.3414835E3,2.095545E0,1.760268E1],"tree_param":{"num_deleted":"0","num_feature":"30","num_nodes":"31","size_leaf_vector":"0"}},{"base_weights":[-9.170585E-3,4.312788E-3,-2.6287854E-1,-1.0893674E-1,3.7100278E-2,-5.213694E-1,-1.8353644E-1,-2.1791059E-1,8.970251E-2,6.054929E-2,-1.2203385E-1,6.5633863E-1,-6.0534924E-1,7.741291E-1,-2.1175075E-1,1.4218257E-1,-3.1497118E-1,3.3590987E-1,-2.4173284E-2,5.4088518E-2,6.40976E-1,2.0303153E-1,-2.3599344E-1,-1.2088383E0,1.1103623E0,-1.026628E0,-4.4030207E-1,-5.899391E-1,1.3314446E0,4.4073802E-1,-2.5296938E-1],"categories":[],"categories_nodes":[],"categories_segments":[],"categories_sizes":[],"default_left":[true,true,true,true,true,true,true,true,true,true,true,true,true,true,true,false,false,false,false,false,false,false,false,false,false,false,false,false,false,false,false],"id":42,"left_children":[1,3,5,7,9,11,13,15,17,19,21,23,25,27,29,-1,-1,-1,-1,-1,-1,-1,-1,-1,-1,-1,-1,-1,-1,-1,-1],"loss_changes":[7.791027E1,8.030705E1,2.34758E1,1.0512918E2,6.259205E1,2.7039955E1,2.396661E1,1.0964557E2,4.8256626E1,5.4784737E1,7.985333E1,1.6932552E1,1.7067627E1,2.0114487E1,2.3146984E1,0E0,0E0,0E0,0E0,0E0,0E0,0E0,0E0,0E0,0E0,0E0,0E0,0E0,0E0,0E0,0E0],"parents":[2147483647,0,0,1,1,2,2,3,3,4,4,5,5,6,6,7,7,8,8,9,9,10,10,11,11,12,12,13,13,14,14],"right_children":[2,4,6,8,10,12,14,16,18,20,22,24,26,28,30,-1,-1,-1,-1,-1,-1,-1,-1,-1,-1,-1,-1,-1,-1,-1,-1],"split_conditions":[5E-1,5E-1,5.0453997E-1,5E-1,5E-1,7.15E-2,5.048647E-1,3.195E-1,5E-1,5E-1,5E-1,3.4500003E-2,3.265E-1,2.955E-1,1.165E-1,1.4218258E-2,-3.1497117E-2,3.3590987E-2,-2.4173285E-3,5.408852E-3,6.4097606E-2,2.0303153E-2,-2.3599345E-2,-1.2088384E-1,1.1103623E-1,-1.026628E-1,-4.403021E-2,-5.8993913E-2,1.3314447E-1,4.40738E-2,-2.529694E-2],"split_indices":[24,19,2,25,13,12,2,7,17,28,5,12,12,12,7,0,0,0,0,0,0,0,0,0,0,0,0,0,0,0,0],"split_type":[0,0,0,0,0,0,0,0,0,0,0,0,0,0,0,0,0,0,0,0,0,0,0,0,0,0,0,0,0,0,0],"sum_hessian":[2.2773861E4,2.162555E4,1.1483124E3,4.8547373E3,1.6770812E4,2.683796E2,8.799327E2,3.1348538E3,1.7198833E3,1.461749E4,2.1533228E3,1.7410097E1,2.5096951E2,2.4425673E1,8.55507E2,6.654778E2,2.469376E3,5.4329407E2,1.1765892E3,1.4457654E4,1.59836E2,5.587443E2,1.5945784E3,3.0828643E0,1.4327232E1,6.917692E1,1.817926E2,7.067919E0,1.7357756E1,5.0256496E1,8.0525055E2],"tree_param":{"num_deleted":"0","num_feature":"30","num_nodes":"31","size_leaf_vector":"0"}},{"base_weights":[-8.311978E-3,-5.3733677E-2,6.504174E-2,-3.163451E-1,-2.5936464E-2,1.5898974E-1,-2.2177106E-2,-5.971829E-1,-1.9861372E-1,-5.6596465E-2,1.871081E-1,1.0901306E-1,2.8231323E-1,-1.3740686E-1,3.047575E-2,2.1281824E0,-6.106243E-1,-2.6000255E-1,1.1431445E-1,-7.3415786E-2,4.416389E-1,-3.4365648E-1,2.1686606E-1,1.7130609E-1,-7.132351E-2,3.7291262E-1,1.0883656E-1,-7.65175E-2,-7.683004E-1,-9.195254E-3,4.4979745E-1],"categories":[],"categories_nodes":[],"categories_segments":[],"categories_sizes":[],"default_left":[true,true,true,true,true,true,true,true,true,true,true,true,true,true,true,false,false,false,false,false,false,false,false,false,false,false,false,false,false,false,false],"id":43,"left_children":[1,3,5,7,9,11,13,15,17,19,21,23,25,27,29,-1,-1,-1,-1,-1,-1,-1,-1,-1,-1,-1,-1,-1,-1,-1,-1],"loss_changes":[7.574766E1,1.0248404E2,7.124304E1,4.4312485E1,8.2949844E1,2.5766907E1,2.7363358E1,1.5822281E1,1.8248177E1,9.305691E1,2.530899E1,3.3491398E1,1.8921043E1,5.4276978E1,5.150454E1,